{"learner":{"attributes":{"scikit_learn":"{\"_estimator_type\": \"regressor\"}"},"feature_names":["hour","day_of_week","day_of_month","temp_lag1","wspd_lag1"],"feature_types":["int","int","int","float","float"],"gradient_booster":{"model":{"cats":{"enc":[],"feature_segments":[],"sorted_idx":[]},"gbtree_model_param":{"num_parallel_tree":"1","num_trees":"100"},"iteration_indptr":[0,1,2,3,4,5,6,7,8,9,10,11,12,13,14,15,16,17,18,19,20,21,22,23,24,25,26,27,28,29,30,31,32,33,34,35,36,37,38,39,40,41,42,43,44,45,46,47,48,49,50,51,52,53,54,55,56,57,58,59,60,61,62,63,64,65,66,67,68,69,70,71,72,73,74,75,76,77,78,79,80,81,82,83,84,85,86,87,88,89,90,91,92,93,94,95,96,97,98,99,100],"tree_info":[0,0,0,0,0,0,0,0,0,0,0,0,0,0,0,0,0,0,0,0,0,0,0,0,0,0,0,0,0,0,0,0,0,0,0,0,0,0,0,0,0,0,0,0,0,0,0,0,0,0,0,0,0,0,0,0,0,0,0,0,0,0,0,0,0,0,0,0,0,0,0,0,0,0,0,0,0,0,0,0,0,0,0,0,0,0,0,0,0,0,0,0,0,0,0,0,0,0,0,0],"trees":[{"base_weights":[-3.6359158E-6,-3.5925267E0,5.7343135E0,-4.8249E0,-9.817391E-1,3.4993663E0,8.454965E0,-6.8993354E0,-4.106164E0,-2.0780685E0,7.9888767E-1,1.1168228E0,4.6121097E0,7.520225E0,1.0750493E1,-7.5011744E0,-5.3223896E0,-4.6664324E0,-1.9721543E0,-2.506251E0,-1.3114028E0,2.1357955E-1,1.3954537E0,1.6567655E-2,1.8307861E0,3.7569532E0,6.0619583E0,5.085476E0,8.198604E0,7.2044215E0,1.111964E1,-2.6773474E0,-2.0939827E0,-6.7584558E0,-3.818142E0,-1.6401484E0,-3.9588273E0,-1.5544097E0,-3.309526E0,-2.5328207E0,-1.263032E0,-3.8904807E-1,-1.4756769E0,6.367794E-1,-1.0863053E0,1.5621649E0,-1.4880342E0,-1.0490483E-1,1.6280496E0,1.2641704E0,2.5812767E0,4.2847333E0,2.4865267E0,6.970612E0,5.554011E0,5.722838E0,3.9091516E0,7.361244E0,8.945404E0,5.5490917E-1,2.216669E0,3.098697E0,3.6375477E0,-2.1546412E0,-3.0014557E-1,-1.2095909E0,-5.14442E-1,-2.4763642E-1,-1.1930075E0,-7.0420235E-1,-2.2598715E-1,-5.1204634E-1,-1.1562756E0,-4.5916465E-1,-7.6813763E-1,-4.3729904E-1,1.4908219E-2,2.7332116E-2,-2.2417068E-1,-4.5720354E-1,1.5736257E-1,2.9455715E-1,7.1585536E-2,-7.826674E-1,-8.392487E-2,1.5327169E-1,6.0212713E-1,-8.401465E-1,1.5736257E-1,4.310901E-1,-7.4134484E-2,1.4908219E-2,5.6484795E-1,-5.201218E-1,4.062147E-1,8.9032525E-1,6.87627E-1,1.0918684E0,1.4795755E0,2.9212976E-1,1.0150588E0,2.1706824E0,1.3465044E0,1.9256755E0,1.5294861E0,8.323632E-1,1.7467055E0,6.625041E-1,1.2830496E0,2.4530337E0,1.9554862E0,2.8198652E0,2.3242848E0],"categories":[],"categories_nodes":[],"categories_segments":[],"categories_sizes":[],"default_left":[0,0,0,0,0,0,0,0,0,0,0,0,0,0,0,0,0,0,0,0,0,0,0,0,0,0,0,0,0,0,0,0,0,0,0,0,0,0,0,0,0,0,0,0,0,0,0,0,0,0,0,0,0,0,0,0,0,0,0,0,0,0,0,0,0,0,0,0,0,0,0,0,0,0,0,0,0,0,0,0,0,0,0,0,0,0,0,0,0,0,0,0,0,0,0,0,0,0,0,0,0,0,0,0,0,0,0,0,0,0,0,0,0],"id":0,"left_children":[1,3,5,7,9,11,13,15,17,19,21,23,25,27,29,31,33,35,37,39,41,43,45,47,49,51,53,55,57,59,61,-1,-1,63,65,-1,67,69,71,73,75,77,79,81,83,85,87,89,91,93,95,97,99,101,103,105,107,109,111,-1,-1,-1,-1,-1,-1,-1,-1,-1,-1,-1,-1,-1,-1,-1,-1,-1,-1,-1,-1,-1,-1,-1,-1,-1,-1,-1,-1,-1,-1,-1,-1,-1,-1,-1,-1,-1,-1,-1,-1,-1,-1,-1,-1,-1,-1,-1,-1,-1,-1,-1,-1,-1,-1],"loss_changes":[7.562505E4,7.25708E3,8.568262E3,2.2573281E3,1.4169712E3,2.0574512E3,1.2859766E3,3.330586E2,1.3549961E3,1.4410779E2,9.6423416E1,1.9556955E2,6.343447E2,7.114746E2,1.5813086E2,1.4691699E2,2.161377E2,4.8999805E2,1.2838013E2,6.281006E0,2.4123474E1,7.82574E1,6.818179E1,1.9550112E1,6.094803E1,2.1463623E2,5.128662E1,5.4102783E1,1.5614453E2,6.0889893E0,4.3476562E0,0E0,0E0,1.2942871E2,1.8721802E1,0E0,2.3753418E1,1.1511456E2,4.23114E1,3.8374023E0,2.1164198E0,4.5397034E0,1.4141296E1,1.4467133E1,4.2251926E1,5.9779694E1,2.2600283E1,2.074718E1,2.7213345E0,2.6058975E1,3.5049438E-1,8.059082E1,1.337572E2,1.0938232E1,1.8514893E1,2.6230469E0,1.494397E1,6.5631836E1,2.6723633E1,0E0,0E0,0E0,0E0,0E0,0E0,0E0,0E0,0E0,0E0,0E0,0E0,0E0,0E0,0E0,0E0,0E0,0E0,0E0,0E0,0E0,0E0,0E0,0E0,0E0,0E0,0E0,0E0,0E0,0E0,0E0,0E0,0E0,0E0,0E0,0E0,0E0,0E0,0E0,0E0,0E0,0E0,0E0,0E0,0E0,0E0,0E0,0E0,0E0,0E0,0E0,0E0,0E0,0E0],"parents":[2147483647,0,0,1,1,2,2,3,3,4,4,5,5,6,6,7,7,8,8,9,9,10,10,11,11,12,12,13,13,14,14,15,15,16,16,17,17,18,18,19,19,20,20,21,21,22,22,23,23,24,24,25,25,26,26,27,27,28,28,29,29,30,30,33,33,34,34,36,36,37,37,38,38,39,39,40,40,41,41,42,42,43,43,44,44,45,45,46,46,47,47,48,48,49,49,50,50,51,51,52,52,53,53,54,54,55,55,56,56,57,57,58,58],"right_children":[2,4,6,8,10,12,14,16,18,20,22,24,26,28,30,32,34,36,38,40,42,44,46,48,50,52,54,56,58,60,62,-1,-1,64,66,-1,68,70,72,74,76,78,80,82,84,86,88,90,92,94,96,98,100,102,104,106,108,110,112,-1,-1,-1,-1,-1,-1,-1,-1,-1,-1,-1,-1,-1,-1,-1,-1,-1,-1,-1,-1,-1,-1,-1,-1,-1,-1,-1,-1,-1,-1,-1,-1,-1,-1,-1,-1,-1,-1,-1,-1,-1,-1,-1,-1,-1,-1,-1,-1,-1,-1,-1,-1,-1,-1],"split_conditions":[8.546E1,8.24E1,9.104E1,7.718E1,1.4E1,1.5E1,9.5E1,1.3E1,1.3E1,8.348E1,8.258E1,8.78E1,8.96E1,1.7E1,1.8E1,7.538E1,7.538E1,8.006E1,7.0007997E0,1.2E1,2E0,1.9E1,1.5767333E1,7E0,8.96E1,1.9E1,1.8E1,1E0,9.32E1,1.1184709E0,9.68E1,-2.6773474E0,-2.0939827E0,1.4322641E1,2.9E1,-1.6401484E0,1E0,1.4E1,8E0,1E0,6.0273156E0,8.160695E0,9E0,1.5E1,4E0,8E0,1.7398438E1,5.8409038E0,4.9088445E0,2E0,1.4E1,8.78E1,8.78E1,2.7E1,7.0007997E0,4E0,9E0,2E1,1.36702E1,5.5490917E-1,2.216669E0,3.098697E0,3.6375477E0,-2.1546412E0,-3.0014557E-1,-1.2095909E0,-5.14442E-1,-2.4763642E-1,-1.1930075E0,-7.0420235E-1,-2.2598715E-1,-5.1204634E-1,-1.1562756E0,-4.5916465E-1,-7.6813763E-1,-4.3729904E-1,1.4908219E-2,2.7332116E-2,-2.2417068E-1,-4.5720354E-1,1.5736257E-1,2.9455715E-1,7.1585536E-2,-7.826674E-1,-8.392487E-2,1.5327169E-1,6.0212713E-1,-8.401465E-1,1.5736257E-1,4.310901E-1,-7.4134484E-2,1.4908219E-2,5.6484795E-1,-5.201218E-1,4.062147E-1,8.9032525E-1,6.87627E-1,1.0918684E0,1.4795755E0,2.9212976E-1,1.0150588E0,2.1706824E0,1.3465044E0,1.9256755E0,1.5294861E0,8.323632E-1,1.7467055E0,6.625041E-1,1.2830496E0,2.4530337E0,1.9554862E0,2.8198652E0,2.3242848E0],"split_indices":[3,3,3,3,0,0,3,0,0,3,3,3,3,0,0,3,3,3,4,0,0,0,4,0,3,0,0,0,3,4,3,0,0,4,2,0,0,0,2,0,4,4,0,0,2,2,4,4,4,2,2,3,3,2,4,2,2,0,4,0,0,0,0,0,0,0,0,0,0,0,0,0,0,0,0,0,0,0,0,0,0,0,0,0,0,0,0,0,0,0,0,0,0,0,0,0,0,0,0,0,0,0,0,0,0,0,0,0,0,0,0,0,0],"split_type":[0,0,0,0,0,0,0,0,0,0,0,0,0,0,0,0,0,0,0,0,0,0,0,0,0,0,0,0,0,0,0,0,0,0,0,0,0,0,0,0,0,0,0,0,0,0,0,0,0,0,0,0,0,0,0,0,0,0,0,0,0,0,0,0,0,0,0,0,0,0,0,0,0,0,0,0,0,0,0,0,0,0,0,0,0,0,0,0,0,0,0,0,0,0,0,0,0,0,0,0,0,0,0,0,0,0,0,0,0,0,0,0,0],"sum_hessian":[3.669E3,2.256E3,1.413E3,1.532E3,7.24E2,7.77E2,6.36E2,3.92E2,1.14E3,4.48E2,2.76E2,2.48E2,5.29E2,4.55E2,1.81E2,2.81E2,1.11E2,9.02E2,2.38E2,2.86E2,1.62E2,1.4E2,1.36E2,9.8E1,1.5E2,3.35E2,1.94E2,1.01E2,3.54E2,1.9E1,1.62E2,7.1E1,2.1E2,5.5E1,5.6E1,4.2E2,4.82E2,1.83E2,5.5E1,2.79E2,7E0,2.5E1,1.37E2,1.06E2,3.4E1,1.29E2,7E0,9.2E1,6E0,8.7E1,6.3E1,2.35E2,1E2,6.5E1,1.29E2,6.3E1,3.8E1,1.72E2,1.82E2,1E0,1.8E1,9.7E1,6.5E1,5.1E1,4E0,5E1,6E0,3E0,4.79E2,9.1E1,9.2E1,1.5E1,4E1,9E0,2.7E2,6E0,1E0,1.1E1,1.4E1,1.34E2,3E0,5.6E1,5E1,1.1E1,2.3E1,3.9E1,9E1,4E0,3E0,7E0,8.5E1,1E0,5E0,2E0,8.5E1,2.3E1,4E1,1.21E2,1.14E2,3.8E1,6.2E1,5.7E1,8E0,4E1,8.9E1,3E0,6E1,8E0,3E1,8.3E1,8.9E1,1.27E2,5.5E1],"tree_param":{"num_deleted":"0","num_feature":"5","num_nodes":"113","size_leaf_vector":"1"}},{"base_weights":[5.347925E-3,-2.5223901E0,4.0400715E0,-3.3869715E0,-6.907683E-1,2.4665895E0,5.9555016E0,-4.8523073E0,-2.8792906E0,-1.4594285E0,5.576765E-1,7.9141796E-1,3.2489502E0,5.29503E0,7.5775867E0,-5.2677393E0,-3.7629855E0,-3.269912E0,-1.3913802E0,-1.7601261E0,-9.210259E-1,6.783325E-1,-1.1164073E0,2.105921E-2,1.2912464E0,2.6414113E0,4.279125E0,3.5739493E0,5.762294E0,1.5545028E0,7.8250756E0,-2.2866302E0,-5.0686707E0,-4.774755E0,-2.7029488E0,-3.8298545E0,-2.7728882E0,-1.1462842E0,-2.8354506E0,-2.397358E0,-1.7161708E0,-2.7990076E-1,-1.0351435E0,2.813371E-1,1.0951505E0,-4.522442E0,-1.951232E-1,-1.00746416E-1,1.004663E0,1.6992112E0,5.886517E-1,3.1196036E0,1.8596636E0,4.6492667E0,3.5822268E0,1.2138858E0,2.6603422E0,5.177647E0,6.289894E0,2.5032275E0,6.8918467E0,-3.934891E-1,-1.5234014E0,-1.5206797E0,-2.2811005E-1,-6.580328E-1,-1.0819551E0,-2.7906877E-1,-1.1503597E0,-1.9191857E-1,-8.3547384E-1,-5.1299417E-1,-1.5949988E-1,-9.945171E-1,-2.5870457E-1,-7.678097E-1,-2.5266114E-1,-5.1786953E-1,-1.8315983E-1,-2.765245E-1,-3.639107E-2,-3.210575E-1,1.21955685E-1,1.0895484E-1,-4.5757028E-1,1.1443858E-1,4.42036E-1,-1.8035883E0,-8.082963E-3,-2.889231E-1,1.08587034E-1,2.4408628E-1,-7.614352E-2,-1.5419921E-1,4.1977617E-1,-1.0139351E-1,5.307945E-1,3.5988238E-2,6.0589015E-1,7.849165E-1,1.1022577E0,2.8010944E-1,7.170917E-1,1.4085503E0,3.6986086E-1,2.1436235E-1,1.0961859E0,-8.44677E-2,8.249648E-1,1.660205E0,1.2075468E0,6.400618E-1,1.9041942E0,2.4778717E0,1.7594167E0],"categories":[],"categories_nodes":[],"categories_segments":[],"categories_sizes":[],"default_left":[0,0,0,0,0,0,0,0,0,0,0,0,0,0,0,0,0,0,0,0,0,0,0,0,0,0,0,0,0,0,0,0,0,0,0,0,0,0,0,0,0,0,0,0,0,0,0,0,0,0,0,0,0,0,0,0,0,0,0,0,0,0,0,0,0,0,0,0,0,0,0,0,0,0,0,0,0,0,0,0,0,0,0,0,0,0,0,0,0,0,0,0,0,0,0,0,0,0,0,0,0,0,0,0,0,0,0,0,0,0,0,0,0,0,0],"id":1,"left_children":[1,3,5,7,9,11,13,15,17,19,21,23,25,27,29,31,33,35,37,39,41,43,45,47,49,51,53,55,57,-1,59,-1,61,63,65,67,69,71,73,75,77,79,81,83,85,87,89,91,93,95,97,99,101,103,105,-1,107,109,111,-1,113,-1,-1,-1,-1,-1,-1,-1,-1,-1,-1,-1,-1,-1,-1,-1,-1,-1,-1,-1,-1,-1,-1,-1,-1,-1,-1,-1,-1,-1,-1,-1,-1,-1,-1,-1,-1,-1,-1,-1,-1,-1,-1,-1,-1,-1,-1,-1,-1,-1,-1,-1,-1,-1,-1],"loss_changes":[3.7439508E4,3.5718145E3,4.246957E3,1.1264629E3,6.9654553E2,1.0170664E3,6.4232227E2,1.5802539E2,6.586113E2,7.107037E1,5.670806E1,9.584956E1,3.2040918E2,3.4612012E2,6.737109E1,9.353369E1,1.07215576E2,2.4068945E2,8.134042E1,3.9244995E0,1.1635925E1,4.2549866E1,5.873815E1,1.1962255E1,4.2281464E1,1.19803955E2,3.3645508E1,3.2388428E1,7.7552734E1,0E0,2.1444336E1,0E0,2.5625E0,6.227832E1,1.8330597E1,2.15625E0,1.0582031E1,7.046118E1,2.9315857E1,1.8756409E0,1.9717407E0,2.534865E0,7.4078827E0,2.0367186E1,3.345671E1,2.6622528E1,7.1935797E0,1.2662762E1,7.310958E0,1.4165375E1,3.7986954E1,4.8156006E1,6.16445E1,1.3656738E1,1.2198608E1,0E0,1.0520782E1,4.959961E1,3.0132324E1,0E0,4.146875E1,0E0,0E0,0E0,0E0,0E0,0E0,0E0,0E0,0E0,0E0,0E0,0E0,0E0,0E0,0E0,0E0,0E0,0E0,0E0,0E0,0E0,0E0,0E0,0E0,0E0,0E0,0E0,0E0,0E0,0E0,0E0,0E0,0E0,0E0,0E0,0E0,0E0,0E0,0E0,0E0,0E0,0E0,0E0,0E0,0E0,0E0,0E0,0E0,0E0,0E0,0E0,0E0,0E0,0E0],"parents":[2147483647,0,0,1,1,2,2,3,3,4,4,5,5,6,6,7,7,8,8,9,9,10,10,11,11,12,12,13,13,14,14,15,15,16,16,17,17,18,18,19,19,20,20,21,21,22,22,23,23,24,24,25,25,26,26,27,27,28,28,30,30,32,32,33,33,34,34,35,35,36,36,37,37,38,38,39,39,40,40,41,41,42,42,43,43,44,44,45,45,46,46,47,47,48,48,49,49,50,50,51,51,52,52,53,53,54,54,56,56,57,57,58,58,60,60],"right_children":[2,4,6,8,10,12,14,16,18,20,22,24,26,28,30,32,34,36,38,40,42,44,46,48,50,52,54,56,58,-1,60,-1,62,64,66,68,70,72,74,76,78,80,82,84,86,88,90,92,94,96,98,100,102,104,106,-1,108,110,112,-1,114,-1,-1,-1,-1,-1,-1,-1,-1,-1,-1,-1,-1,-1,-1,-1,-1,-1,-1,-1,-1,-1,-1,-1,-1,-1,-1,-1,-1,-1,-1,-1,-1,-1,-1,-1,-1,-1,-1,-1,-1,-1,-1,-1,-1,-1,-1,-1,-1,-1,-1,-1,-1,-1,-1],"split_conditions":[8.546E1,8.24E1,9.104E1,7.718E1,1.4E1,1.5E1,9.5E1,1.3E1,1.3E1,8.348E1,2.3E1,8.78E1,8.96E1,3E0,1.8E1,7.448E1,7.538E1,8.06E1,9.320591E0,1.1184709E0,2E0,8.258E1,4E0,5E0,2E0,1.8E1,2E1,1E0,9.32E1,1.5545028E0,2.2E1,-2.2866302E0,7.52E1,1.4322641E1,4.9088445E0,1E0,1E0,7.952E1,2.1E1,1.1E1,1.3E1,7E0,9E0,2.8E1,9E0,8.258E1,1.6E1,3E0,6.0273156E0,2E0,3E0,8.78E1,8.78E1,1.4322641E1,2E0,1.2138858E0,2E0,2.2E1,3E0,2.5032275E0,8.160695E0,-3.934891E-1,-1.5234014E0,-1.5206797E0,-2.2811005E-1,-6.580328E-1,-1.0819551E0,-2.7906877E-1,-1.1503597E0,-1.9191857E-1,-8.3547384E-1,-5.1299417E-1,-1.5949988E-1,-9.945171E-1,-2.5870457E-1,-7.678097E-1,-2.5266114E-1,-5.1786953E-1,-1.8315983E-1,-2.765245E-1,-3.639107E-2,-3.210575E-1,1.21955685E-1,1.0895484E-1,-4.5757028E-1,1.1443858E-1,4.42036E-1,-1.8035883E0,-8.082963E-3,-2.889231E-1,1.08587034E-1,2.4408628E-1,-7.614352E-2,-1.5419921E-1,4.1977617E-1,-1.0139351E-1,5.307945E-1,3.5988238E-2,6.0589015E-1,7.849165E-1,1.1022577E0,2.8010944E-1,7.170917E-1,1.4085503E0,3.6986086E-1,2.1436235E-1,1.0961859E0,-8.44677E-2,8.249648E-1,1.660205E0,1.2075468E0,6.400618E-1,1.9041942E0,2.4778717E0,1.7594167E0],"split_indices":[3,3,3,3,0,0,3,0,0,3,0,3,3,0,0,3,3,3,4,4,0,3,2,0,0,0,0,0,3,0,0,0,3,4,4,0,0,3,0,0,0,2,0,2,2,3,2,2,4,2,0,3,3,4,2,0,2,0,2,0,4,0,0,0,0,0,0,0,0,0,0,0,0,0,0,0,0,0,0,0,0,0,0,0,0,0,0,0,0,0,0,0,0,0,0,0,0,0,0,0,0,0,0,0,0,0,0,0,0,0,0,0,0,0,0],"split_type":[0,0,0,0,0,0,0,0,0,0,0,0,0,0,0,0,0,0,0,0,0,0,0,0,0,0,0,0,0,0,0,0,0,0,0,0,0,0,0,0,0,0,0,0,0,0,0,0,0,0,0,0,0,0,0,0,0,0,0,0,0,0,0,0,0,0,0,0,0,0,0,0,0,0,0,0,0,0,0,0,0,0,0,0,0,0,0,0,0,0,0,0,0,0,0,0,0,0,0,0,0,0,0,0,0,0,0,0,0,0,0,0,0,0,0],"sum_hessian":[3.669E3,2.256E3,1.413E3,1.532E3,7.24E2,7.77E2,6.36E2,3.92E2,1.14E3,4.48E2,2.76E2,2.48E2,5.29E2,4.55E2,1.81E2,2.81E2,1.11E2,9.02E2,2.38E2,2.86E2,1.62E2,2.58E2,1.8E1,9.8E1,1.5E2,3.35E2,1.94E2,9.9E1,3.56E2,1.9E1,1.62E2,1.9E1,2.62E2,5.5E1,5.6E1,4.21E2,4.81E2,2.05E2,3.3E1,1.5E1,2.71E2,2.5E1,1.37E2,1.33E2,1.25E2,3E0,1.5E1,8.8E1,1E1,9.4E1,5.6E1,2.06E2,1.29E2,1.23E2,7.1E1,6.3E1,3.6E1,1.74E2,1.82E2,9.9E1,6.3E1,1E0,2.61E2,5.1E1,4E0,3.8E1,1.8E1,1E0,4.2E2,3E0,4.78E2,1.06E2,9.9E1,2.6E1,7E0,1.3E1,2E0,2.68E2,3E0,4E0,2.1E1,1.34E2,3E0,1.28E2,5E0,4.4E1,8.1E1,2E0,1E0,6E0,9E0,1.2E1,7.6E1,2E0,8E0,3E0,9.1E1,4.3E1,1.3E1,1.11E2,9.5E1,4.8E1,8.1E1,1.21E2,2E0,2E0,6.9E1,1E0,3.5E1,1.3E2,4.4E1,3E0,1.79E2,2.4E1,3.9E1],"tree_param":{"num_deleted":"0","num_feature":"5","num_nodes":"115","size_leaf_vector":"1"}},{"base_weights":[5.6631374E-3,-1.7728038E0,2.8444142E0,-2.3787575E0,-4.890801E-1,1.7362243E0,4.193437E0,-3.4161892E0,-2.019345E0,-1.0265745E0,3.8393092E-1,5.4839313E-1,2.2811966E0,3.2243462E0,4.7672772E0,-5.2398663E0,-3.256501E0,-2.2916598E0,-9.8202425E-1,-1.238088E0,-6.478569E-1,7.6735705E-1,-4.307013E-2,2.6674655E-1,1.3451577E0,1.8545367E0,3.01123E0,2.071414E0,3.6407413E0,4.4283967E0,6.2401466E0,2.6206972E-2,-5.426576E0,-3.55536E0,-2.4539864E0,-2.6853468E0,-1.9437637E0,-7.669646E-1,-2.5129056E0,-1.140626E0,-1.4600426E0,2.5449753E-1,-6.899786E-1,3.0112168E-1,1.1928222E0,-7.5717974E-1,6.40168E-1,6.0160923E-1,-8.5962765E-2,1.1253422E0,1.7136536E0,2.1831512E0,1.3094321E0,3.5612493E0,2.708826E0,2.4275527E0,1.5013845E0,1.3088489E0,3.2160907E0,3.1962626E0,4.6136794E0,2.1337233E0,5.3197074E0,-1.6735538E0,-1.7585221E-1,-1.2562809E0,-1.0139102E0,-5.160908E-1,-8.942741E-1,-3.220192E-1,-8.071438E-1,-5.141988E-1,-6.126347E-1,-3.75489E-1,-6.494097E-2,-1.1682054E0,-4.7431678E-1,-4.0071064E-1,-3.0430928E-1,-1.9138908E-1,-4.725535E-1,1.2678517E-1,-1.3835107E-1,-1.669245E-1,-2.991821E-1,-3.0435758E-2,4.22473E-1,1.7910898E-1,5.8531976E-1,-1.9491571E-1,-8.2843864E-1,2.61996E-1,-3.6529085E-1,6.023295E-2,3.157614E-1,-4.787256E-1,8.44574E-4,4.9208596E-1,1.3534264E-1,6.454996E-1,2.918619E-1,5.490097E-1,7.7502525E-1,6.6248083E-1,2.9042736E-1,1.120799E0,6.1182225E-1,1.1147454E0,7.3729277E-1,1.4776078E-1,7.5565094E-1,2.2265625E-3,5.250207E-1,3.5691294E-1,1.0395398E0,9.894412E-1,-2.0821267E-1,1.5460554E0,1.2204251E0,1.6573586E0,3.0610353E-1],"categories":[],"categories_nodes":[],"categories_segments":[],"categories_sizes":[],"default_left":[0,0,0,0,0,0,0,0,0,0,0,0,0,0,0,0,0,0,0,0,0,0,0,0,0,0,0,0,0,0,0,0,0,0,0,0,0,0,0,0,0,0,0,0,0,0,0,0,0,0,0,0,0,0,0,0,0,0,0,0,0,0,0,0,0,0,0,0,0,0,0,0,0,0,0,0,0,0,0,0,0,0,0,0,0,0,0,0,0,0,0,0,0,0,0,0,0,0,0,0,0,0,0,0,0,0,0,0,0,0,0,0,0,0,0,0,0,0,0,0,0],"id":2,"left_children":[1,3,5,7,9,11,13,15,17,19,21,23,25,27,29,31,33,35,37,39,41,43,45,47,49,51,53,55,57,59,61,-1,63,65,67,69,71,73,75,77,79,81,83,85,87,89,91,93,95,97,99,101,103,105,107,109,111,-1,113,115,117,-1,119,-1,-1,-1,-1,-1,-1,-1,-1,-1,-1,-1,-1,-1,-1,-1,-1,-1,-1,-1,-1,-1,-1,-1,-1,-1,-1,-1,-1,-1,-1,-1,-1,-1,-1,-1,-1,-1,-1,-1,-1,-1,-1,-1,-1,-1,-1,-1,-1,-1,-1,-1,-1,-1,-1,-1,-1,-1,-1],"loss_changes":[1.8533496E4,1.7545054E3,2.1066123E3,5.647041E2,3.4059207E2,5.023755E2,3.388662E2,9.738574E1,3.2005664E2,3.516452E1,4.5384422E1,5.4845055E1,1.6043213E2,1.07677E2,1.7101855E2,3.0313416E1,7.8576416E1,1.1845752E2,7.6758835E1,4.543091E0,6.37101E0,2.8602386E1,6.4888435E1,2.1665695E1,3.2556229E0,5.786609E1,2.2787231E1,9.753937E0,3.962964E1,5.9905273E1,1.9970215E1,0E0,1.8057556E1,1.5055908E1,3.430493E1,5.9521484E-1,7.414673E0,5.6025047E1,3.1166016E1,3.6697388E0,6.9457397E0,1.1574414E0,5.84787E0,3.1787468E1,3.316858E1,1.2205631E1,3.0517622E1,1.6778889E1,1.20677395E1,1.4188545E1,5.045059E0,2.495398E1,3.7747482E1,9.932678E0,2.375E1,5.648178E0,1.0389713E1,0E0,5.340796E1,2.0519867E1,6.209375E1,0E0,2.8706543E1,0E0,0E0,0E0,0E0,0E0,0E0,0E0,0E0,0E0,0E0,0E0,0E0,0E0,0E0,0E0,0E0,0E0,0E0,0E0,0E0,0E0,0E0,0E0,0E0,0E0,0E0,0E0,0E0,0E0,0E0,0E0,0E0,0E0,0E0,0E0,0E0,0E0,0E0,0E0,0E0,0E0,0E0,0E0,0E0,0E0,0E0,0E0,0E0,0E0,0E0,0E0,0E0,0E0,0E0,0E0,0E0,0E0,0E0],"parents":[2147483647,0,0,1,1,2,2,3,3,4,4,5,5,6,6,7,7,8,8,9,9,10,10,11,11,12,12,13,13,14,14,15,15,16,16,17,17,18,18,19,19,20,20,21,21,22,22,23,23,24,24,25,25,26,26,27,27,28,28,29,29,30,30,32,32,33,33,34,34,35,35,36,36,37,37,38,38,39,39,40,40,41,41,42,42,43,43,44,44,45,45,46,46,47,47,48,48,49,49,50,50,51,51,52,52,53,53,54,54,55,55,56,56,58,58,59,59,60,60,62,62],"right_children":[2,4,6,8,10,12,14,16,18,20,22,24,26,28,30,32,34,36,38,40,42,44,46,48,50,52,54,56,58,60,62,-1,64,66,68,70,72,74,76,78,80,82,84,86,88,90,92,94,96,98,100,102,104,106,108,110,112,-1,114,116,118,-1,120,-1,-1,-1,-1,-1,-1,-1,-1,-1,-1,-1,-1,-1,-1,-1,-1,-1,-1,-1,-1,-1,-1,-1,-1,-1,-1,-1,-1,-1,-1,-1,-1,-1,-1,-1,-1,-1,-1,-1,-1,-1,-1,-1,-1,-1,-1,-1,-1,-1,-1,-1,-1,-1,-1,-1,-1,-1,-1],"split_conditions":[8.546E1,8.24E1,9.104E1,7.718E1,1.4E1,1.4E1,9.32E1,7.448E1,1.3E1,8.348E1,1.6E1,8.96E1,8.96E1,3E0,9.68E1,2E0,1.3E1,8.006E1,2E1,2.2E1,3.7903738E0,5.8409038E0,3E0,1.4E1,2.4E1,1.8E1,1.8E1,1E0,1.9E1,3E0,8.160695E0,2.6206972E-2,2.2E1,7.538E1,3.603962E0,7.772E1,2E0,8.024E1,2.1E1,1.1E1,2E0,5E0,5E0,2.3E1,8.258E1,2.8E1,1.5767333E1,8.78E1,1.5E1,1.4E1,2.8E1,8.78E1,7.0007997E0,2.7E1,6.0273156E0,7.0007997E0,9E0,1.3088489E0,1E0,2E0,2.1E1,2.1337233E0,1.004E2,-1.6735538E0,-1.7585221E-1,-1.2562809E0,-1.0139102E0,-5.160908E-1,-8.942741E-1,-3.220192E-1,-8.071438E-1,-5.141988E-1,-6.126347E-1,-3.75489E-1,-6.494097E-2,-1.1682054E0,-4.7431678E-1,-4.0071064E-1,-3.0430928E-1,-1.9138908E-1,-4.725535E-1,1.2678517E-1,-1.3835107E-1,-1.669245E-1,-2.991821E-1,-3.0435758E-2,4.22473E-1,1.7910898E-1,5.8531976E-1,-1.9491571E-1,-8.2843864E-1,2.61996E-1,-3.6529085E-1,6.023295E-2,3.157614E-1,-4.787256E-1,8.44574E-4,4.9208596E-1,1.3534264E-1,6.454996E-1,2.918619E-1,5.490097E-1,7.7502525E-1,6.6248083E-1,2.9042736E-1,1.120799E0,6.1182225E-1,1.1147454E0,7.3729277E-1,1.4776078E-1,7.5565094E-1,2.2265625E-3,5.250207E-1,3.5691294E-1,1.0395398E0,9.894412E-1,-2.0821267E-1,1.5460554E0,1.2204251E0,1.6573586E0,3.0610353E-1],"split_indices":[3,3,3,3,0,0,3,3,0,3,0,3,3,0,3,1,0,3,0,2,4,4,1,2,2,0,0,0,0,0,4,0,0,3,4,3,1,3,0,2,0,0,1,2,3,2,4,3,2,2,2,3,4,2,4,4,2,0,1,0,0,0,3,0,0,0,0,0,0,0,0,0,0,0,0,0,0,0,0,0,0,0,0,0,0,0,0,0,0,0,0,0,0,0,0,0,0,0,0,0,0,0,0,0,0,0,0,0,0,0,0,0,0,0,0,0,0,0,0,0,0],"split_type":[0,0,0,0,0,0,0,0,0,0,0,0,0,0,0,0,0,0,0,0,0,0,0,0,0,0,0,0,0,0,0,0,0,0,0,0,0,0,0,0,0,0,0,0,0,0,0,0,0,0,0,0,0,0,0,0,0,0,0,0,0,0,0,0,0,0,0,0,0,0,0,0,0,0,0,0,0,0,0,0,0,0,0,0,0,0,0,0,0,0,0,0,0,0,0,0,0,0,0,0,0,0,0,0,0,0,0,0,0,0,0,0,0,0,0,0,0,0,0,0,0],"sum_hessian":[3.669E3,2.256E3,1.413E3,1.532E3,7.24E2,7.77E2,6.36E2,3.92E2,1.14E3,4.48E2,2.76E2,2.45E2,5.32E2,2.39E2,3.97E2,2.9E1,3.63E2,9.02E2,2.38E2,2.86E2,1.62E2,1.45E2,1.31E2,1.82E2,6.3E1,3.38E2,1.94E2,6.5E1,1.74E2,3.26E2,7.1E1,1E0,2.8E1,2.62E2,1.01E2,4.2E2,4.82E2,2.1E2,2.8E1,2.03E2,8.3E1,7E0,1.55E2,7E1,7.5E1,6.4E1,6.7E1,9.3E1,8.9E1,4.2E1,2.1E1,2.09E2,1.29E2,6.5E1,1.29E2,3.8E1,2.7E1,6.1E1,1.13E2,4.5E1,2.81E2,3.3E1,3.8E1,2.7E1,1E0,5.2E1,2.1E2,4.4E1,5.7E1,2E0,4.18E2,1.5E2,3.32E2,1.11E2,9.9E1,1E1,1.8E1,7.6E1,1.27E2,1.1E1,7.2E1,6E0,1E0,1.1E2,4.5E1,5.2E1,1.8E1,4.3E1,3.2E1,6.2E1,2E0,6E1,7E0,5E1,4.3E1,4E0,8.5E1,2.3E1,1.9E1,1.2E1,9E0,1.14E2,9.5E1,3.4E1,9.5E1,5.7E1,8E0,2.3E1,1.06E2,2E0,3.6E1,4E0,2.3E1,1.3E1,1E2,4.4E1,1E0,1.37E2,1.44E2,3.6E1,2E0],"tree_param":{"num_deleted":"0","num_feature":"5","num_nodes":"121","size_leaf_vector":"1"}},{"base_weights":[5.9923865E-3,-1.2461292E0,2.0046008E0,-1.6715515E0,-3.448623E-1,1.2247715E0,2.9538984E0,-2.3923178E0,-1.4115144E0,-7.328343E-1,2.566833E-1,3.967601E-1,1.6114697E0,2.6029758E0,3.816903E0,-2.952792E0,-2.1286168E0,-1.5981301E0,-7.061667E-1,-8.821233E-1,-4.7028017E-1,3.085543E-1,-1.3683107E0,-2.3480117E-2,6.696543E-1,9.9293566E-1,1.8738794E0,1.8078307E0,2.824108E0,3.5853655E0,5.421293E0,-3.2134585E0,-1.4840248E0,-2.3670213E0,-1.1794024E0,-1.8709028E0,-1.362222E0,-6.022177E-1,-3.0159822E0,-8.213686E-1,-1.2261174E0,-7.626372E-2,-5.416243E-1,2.6316294E-1,2.7252107E0,-7.1829075E-1,5.1275444E-1,9.7162205E-1,-1.2163879E-1,8.8884616E-1,2.925862E-1,1.290122E0,3.7815973E-2,1.5852613E0,2.1262462E0,-3.566288E-1,1.8492699E0,3.1927476E0,2.5721002E0,2.1699336E0,3.7256186E0,2.1740422E0,3.9909062E0,-3.5067254E-1,-9.9066657E-1,-5.375026E-1,7.0034754E-1,-7.6450175E-1,-6.5660036E-1,-4.3954995E-1,-1.01309545E-1,-1.1613694E-1,-5.620733E-1,-1.827736E-2,-4.1107348E-1,-3.627966E-1,-9.652531E-2,-1.0116171E0,2.8303528E-2,-2.5861222E-1,-1.3556585E-1,-2.6442978E-1,-4.6820804E-1,3.9016E-2,-1.9645387E-1,-2.0182605E-1,-9.430232E-2,1.4939417E-1,-1.077903E-2,8.898468E-2,9.7746164E-1,3.8574222E-2,2.4979134E-1,3.3753777E-1,-3.8461305E-2,-2.3138566E-1,8.170899E-3,-2.460607E-2,2.937192E-1,2.5707918E-1,-4.314409E-2,3.1436706E-1,4.4592577E-1,-2.4726702E-1,2.2242062E-1,6.410185E-1,3.895571E-1,7.5573856E-1,5.731282E-1,4.4746056E-1,7.531047E-1,9.88677E-1,4.5787147E-1,6.613032E-1,8.437387E-1,8.748853E-1,3.5474372E-1,1.2262988E0,8.913218E-1,1.503461E0,3.4543946E-1],"categories":[],"categories_nodes":[],"categories_segments":[],"categories_sizes":[],"default_left":[0,0,0,0,0,0,0,0,0,0,0,0,0,0,0,0,0,0,0,0,0,0,0,0,0,0,0,0,0,0,0,0,0,0,0,0,0,0,0,0,0,0,0,0,0,0,0,0,0,0,0,0,0,0,0,0,0,0,0,0,0,0,0,0,0,0,0,0,0,0,0,0,0,0,0,0,0,0,0,0,0,0,0,0,0,0,0,0,0,0,0,0,0,0,0,0,0,0,0,0,0,0,0,0,0,0,0,0,0,0,0,0,0,0,0,0,0,0,0,0,0],"id":3,"left_children":[1,3,5,7,9,11,13,15,17,19,21,23,25,27,29,31,33,35,37,39,41,43,45,47,49,51,53,55,57,59,61,63,65,67,69,71,73,75,77,79,81,83,85,87,89,-1,91,93,95,97,99,101,103,105,107,-1,109,111,113,115,117,-1,119,-1,-1,-1,-1,-1,-1,-1,-1,-1,-1,-1,-1,-1,-1,-1,-1,-1,-1,-1,-1,-1,-1,-1,-1,-1,-1,-1,-1,-1,-1,-1,-1,-1,-1,-1,-1,-1,-1,-1,-1,-1,-1,-1,-1,-1,-1,-1,-1,-1,-1,-1,-1,-1,-1,-1,-1,-1,-1],"loss_changes":[9.186676E3,8.6480054E2,1.0431523E3,2.8394678E2,1.6939064E2,2.4846887E2,1.82979E2,5.357251E1,1.4748047E2,1.6870804E1,2.4444859E1,2.857132E1,8.416333E1,7.507373E1,4.8171387E1,4.3854126E1,6.0345337E1,5.485083E1,5.532824E1,4.8447113E0,4.512638E0,2.9668415E1,1.8597305E1,9.7883E0,1.2220116E1,4.536696E1,2.36521E1,1.4864349E1,2.4767334E1,2.4075928E1,2.5913635E1,1.5558594E1,2.8852787E1,1.6015625E0,1.3455887E1,9.057617E-1,4.9486694E0,3.8603294E1,1.1393227E1,3.2321167E0,3.2372856E0,3.188822E0,3.8715973E0,1.9191317E1,5.5057106E0,0E0,3.8450205E-1,1.6636944E0,8.822185E0,8.401306E0,1.4161184E1,4.2434387E0,2.4265316E1,2.5213806E1,1.172168E1,0E0,2.0141296E1,1.8964355E1,1.2893555E1,9.080353E0,2.773938E1,0E0,3.4801666E1,0E0,0E0,0E0,0E0,0E0,0E0,0E0,0E0,0E0,0E0,0E0,0E0,0E0,0E0,0E0,0E0,0E0,0E0,0E0,0E0,0E0,0E0,0E0,0E0,0E0,0E0,0E0,0E0,0E0,0E0,0E0,0E0,0E0,0E0,0E0,0E0,0E0,0E0,0E0,0E0,0E0,0E0,0E0,0E0,0E0,0E0,0E0,0E0,0E0,0E0,0E0,0E0,0E0,0E0,0E0,0E0,0E0,0E0],"parents":[2147483647,0,0,1,1,2,2,3,3,4,4,5,5,6,6,7,7,8,8,9,9,10,10,11,11,12,12,13,13,14,14,15,15,16,16,17,17,18,18,19,19,20,20,21,21,22,22,23,23,24,24,25,25,26,26,27,27,28,28,29,29,30,30,31,31,32,32,33,33,34,34,35,35,36,36,37,37,38,38,39,39,40,40,41,41,42,42,43,43,44,44,46,46,47,47,48,48,49,49,50,50,51,51,52,52,53,53,54,54,56,56,57,57,58,58,59,59,60,60,62,62],"right_children":[2,4,6,8,10,12,14,16,18,20,22,24,26,28,30,32,34,36,38,40,42,44,46,48,50,52,54,56,58,60,62,64,66,68,70,72,74,76,78,80,82,84,86,88,90,-1,92,94,96,98,100,102,104,106,108,-1,110,112,114,116,118,-1,120,-1,-1,-1,-1,-1,-1,-1,-1,-1,-1,-1,-1,-1,-1,-1,-1,-1,-1,-1,-1,-1,-1,-1,-1,-1,-1,-1,-1,-1,-1,-1,-1,-1,-1,-1,-1,-1,-1,-1,-1,-1,-1,-1,-1,-1,-1,-1,-1,-1,-1,-1,-1,-1,-1,-1,-1,-1,-1],"split_conditions":[8.546E1,8.24E1,9.104E1,7.862E1,1.2E1,1.5E1,9.5E1,7.538E1,1.3E1,8.348E1,1.5767333E1,8.78E1,8.78E1,1.7E1,9.86E1,1.7E1,1.3E1,8.06E1,1.1806082E1,8E0,2E0,1.287795E1,1.7398438E1,5.8409038E0,2E0,1.9E1,8.96E1,1.1184709E0,2E1,1.8E1,1.1E1,1E0,6E0,4E0,2.7E1,1E0,1E0,2E0,2.6E1,7E0,1.4E1,2.5E1,1.05012E1,1.6E1,5E0,-7.1829075E-1,4E0,2.7E1,1E0,4E0,1.4E1,7.0007997E0,2.1E1,1.7E1,1.8E1,-3.566288E-1,9.32E1,1.287795E1,9.32E1,3E0,2.2E1,2.1740422E0,8.160695E0,-3.5067254E-1,-9.9066657E-1,-5.375026E-1,7.0034754E-1,-7.6450175E-1,-6.5660036E-1,-4.3954995E-1,-1.01309545E-1,-1.1613694E-1,-5.620733E-1,-1.827736E-2,-4.1107348E-1,-3.627966E-1,-9.652531E-2,-1.0116171E0,2.8303528E-2,-2.5861222E-1,-1.3556585E-1,-2.6442978E-1,-4.6820804E-1,3.9016E-2,-1.9645387E-1,-2.0182605E-1,-9.430232E-2,1.4939417E-1,-1.077903E-2,8.898468E-2,9.7746164E-1,3.8574222E-2,2.4979134E-1,3.3753777E-1,-3.8461305E-2,-2.3138566E-1,8.170899E-3,-2.460607E-2,2.937192E-1,2.5707918E-1,-4.314409E-2,3.1436706E-1,4.4592577E-1,-2.4726702E-1,2.2242062E-1,6.410185E-1,3.895571E-1,7.5573856E-1,5.731282E-1,4.4746056E-1,7.531047E-1,9.88677E-1,4.5787147E-1,6.613032E-1,8.437387E-1,8.748853E-1,3.5474372E-1,1.2262988E0,8.913218E-1,1.503461E0,3.4543946E-1],"split_indices":[3,3,3,3,0,0,3,3,0,3,4,3,3,0,3,0,0,3,4,0,0,4,4,4,0,0,3,4,0,0,2,1,1,1,2,0,0,1,2,0,2,2,4,0,1,0,1,2,1,2,2,4,0,0,0,0,3,4,3,1,0,0,4,0,0,0,0,0,0,0,0,0,0,0,0,0,0,0,0,0,0,0,0,0,0,0,0,0,0,0,0,0,0,0,0,0,0,0,0,0,0,0,0,0,0,0,0,0,0,0,0,0,0,0,0,0,0,0,0,0,0],"split_type":[0,0,0,0,0,0,0,0,0,0,0,0,0,0,0,0,0,0,0,0,0,0,0,0,0,0,0,0,0,0,0,0,0,0,0,0,0,0,0,0,0,0,0,0,0,0,0,0,0,0,0,0,0,0,0,0,0,0,0,0,0,0,0,0,0,0,0,0,0,0,0,0,0,0,0,0,0,0,0,0,0,0,0,0,0,0,0,0,0,0,0,0,0,0,0,0,0,0,0,0,0,0,0,0,0,0,0,0,0,0,0,0,0,0,0,0,0,0,0,0,0],"sum_hessian":[3.669E3,2.256E3,1.413E3,1.532E3,7.24E2,7.77E2,6.36E2,4.04E2,1.128E3,4.4E2,2.84E2,2.48E2,5.29E2,4.55E2,1.81E2,1.26E2,2.78E2,8.91E2,2.37E2,2.79E2,1.61E2,2.76E2,8E0,9.8E1,1.5E2,1.59E2,3.7E2,1.01E2,3.54E2,1.61E2,2E1,1.06E2,2E1,2.21E2,5.7E1,4.1E2,4.81E2,2.28E2,9E0,2.4E2,3.9E1,2.5E1,1.36E2,2.72E2,4E0,5E0,3E0,8E0,9E1,9.4E1,5.6E1,1.21E2,3.8E1,1.76E2,1.94E2,1E0,1E2,1.39E2,2.15E2,1.6E1,1.45E2,7E0,1.3E1,5E0,1.01E2,1.9E1,1E0,1.03E2,1.18E2,4.2E1,1.5E1,1E0,4.09E2,3E0,4.78E2,7.1E1,1.57E2,8E0,1E0,2.15E2,2.5E1,2.1E1,1.8E1,1.9E1,6E0,8.5E1,5.1E1,1.52E2,1.2E2,1E0,3E0,2E0,1E0,7E0,1E0,1.6E1,7.4E1,8E0,8.6E1,2.4E1,3.2E1,5.7E1,6.4E1,1.7E1,2.1E1,5.8E1,1.18E2,6.5E1,1.29E2,6.7E1,3.3E1,1.3E2,9E0,8.9E1,1.26E2,8E0,8E0,9.5E1,5E1,9E0,4E0],"tree_param":{"num_deleted":"0","num_feature":"5","num_nodes":"121","size_leaf_vector":"1"}},{"base_weights":[6.4628706E-3,-8.7516826E-1,1.4137012E0,-1.4024496E0,-4.9981597E-1,1.031248E0,2.387423E0,-2.0741725E0,-1.2947024E0,-7.4732554E-1,1.6481921E-1,4.9458548E-1,1.3360841E0,2.192651E0,3.2388532E0,-2.1499581E0,2.2014466E-1,-1.436419E0,-7.934983E-1,-9.5059645E-1,-5.129635E-1,2.3505512E-1,-1.5827838E0,2.801513E-1,8.8830894E-1,9.492913E-1,1.6278034E0,2.7846324E0,1.992848E0,3.4301207E0,1.9966717E0,-2.3182213E0,-1.0302849E0,-6.11903E-1,1.3889146E0,-1.6626391E0,-1.3112826E0,-6.3451594E-1,-1.604905E0,-8.2287115E-1,-1.0070415E0,-6.208184E-1,-3.1991234E-1,-6.0192037E-2,4.893548E-1,-3.0042293E0,-4.5928872E-1,1.16261326E-1,7.726151E-1,1.2180076E0,6.3802296E-1,1.0532559E0,-6.775609E-2,1.7648267E0,1.1435248E0,1.1286058E0,2.9279692E0,2.0830622E0,1.3188069E0,3.1022046E0,1.7756958E0,-2.8396606E-2,3.0127554E0,-2.6300508E-1,-7.14087E-1,-3.847548E-1,1.9751282E-1,-5.1913345E-1,-3.9973703E-1,-5.06909E-1,-3.8658923E-1,-1.5843672E-1,-4.9593872E-1,-6.3066185E-1,-7.9863995E-2,7.0071375E-1,-2.5703597E-1,-5.824023E-1,-2.913629E-1,-3.449481E-1,-1.7622533E-1,-1.9858544E-1,-7.228471E-2,1.4004204E-1,-1.8808727E-1,8.290036E-2,2.7025956E-1,-4.0989306E-2,-1.0651269E0,-7.9369813E-1,4.3414593E-2,3.1173196E-1,1.3502076E-2,2.9098424E-1,8.8722795E-2,2.7536973E-1,5.214972E-1,-1.18238695E-1,2.401144E-1,2.9884294E-1,7.510974E-1,1.0297205E-1,-5.834363E-1,4.821464E-1,5.821373E-1,-4.7809952E-1,4.1235286E-1,-6.1838917E-2,1.0265626E0,9.3772805E-1,6.982121E-1,6.6212547E-1,3.8912553E-1,4.509202E-1,-6.589897E-1,9.4918066E-1,2.8709415E-1,-1.0195366E0,1.0053383E0,1.7201729E-1,9.8379695E-1],"categories":[],"categories_nodes":[],"categories_segments":[],"categories_sizes":[],"default_left":[0,0,0,0,0,0,0,0,0,0,0,0,0,0,0,0,0,0,0,0,0,0,0,0,0,0,0,0,0,0,0,0,0,0,0,0,0,0,0,0,0,0,0,0,0,0,0,0,0,0,0,0,0,0,0,0,0,0,0,0,0,0,0,0,0,0,0,0,0,0,0,0,0,0,0,0,0,0,0,0,0,0,0,0,0,0,0,0,0,0,0,0,0,0,0,0,0,0,0,0,0,0,0,0,0,0,0,0,0,0,0,0,0,0,0,0,0,0,0,0,0],"id":4,"left_children":[1,3,5,7,9,11,13,15,17,19,21,23,25,27,29,31,33,35,37,39,41,43,45,47,49,51,53,55,57,59,61,63,65,-1,-1,67,69,71,73,75,77,79,81,83,85,87,89,91,93,95,97,99,101,103,105,107,109,111,113,115,-1,117,119,-1,-1,-1,-1,-1,-1,-1,-1,-1,-1,-1,-1,-1,-1,-1,-1,-1,-1,-1,-1,-1,-1,-1,-1,-1,-1,-1,-1,-1,-1,-1,-1,-1,-1,-1,-1,-1,-1,-1,-1,-1,-1,-1,-1,-1,-1,-1,-1,-1,-1,-1,-1,-1,-1,-1,-1,-1,-1],"loss_changes":[4.554478E3,4.4599597E2,5.241162E2,6.520361E1,2.1726788E2,1.6571436E2,5.8900635E1,2.2729492E1,5.64646E1,4.5341064E1,4.4437313E1,3.098941E1,7.15719E1,3.312805E1,1.0257568E1,2.0973083E1,5.9267326E1,1.5682373E1,2.2330544E1,2.8770142E0,9.150253E0,2.600757E1,2.0978008E1,1.9361252E1,9.95034E0,2.9783463E1,2.2401367E1,1.5684998E1,1.2333313E1,3.1422607E1,2.4777218E1,7.4869995E0,8.511169E0,0E0,0E0,2.6420898E0,1.345581E0,1.5708153E1,1.8746613E1,1.9462517E1,9.898651E0,4.39563E0,4.242895E0,4.838091E1,1.6055828E1,8.912483E0,1.2268064E1,1.1920967E1,5.359291E0,6.9927216E0,1.3051416E1,1.8629333E1,2.1496756E1,4.7736206E0,5.5299408E1,2.5192612E1,1.3970337E0,1.82901E1,2.4029892E1,4.3880615E0,0E0,6.833464E1,3.3217087E0,0E0,0E0,0E0,0E0,0E0,0E0,0E0,0E0,0E0,0E0,0E0,0E0,0E0,0E0,0E0,0E0,0E0,0E0,0E0,0E0,0E0,0E0,0E0,0E0,0E0,0E0,0E0,0E0,0E0,0E0,0E0,0E0,0E0,0E0,0E0,0E0,0E0,0E0,0E0,0E0,0E0,0E0,0E0,0E0,0E0,0E0,0E0,0E0,0E0,0E0,0E0,0E0,0E0,0E0,0E0,0E0,0E0,0E0],"parents":[2147483647,0,0,1,1,2,2,3,3,4,4,5,5,6,6,7,7,8,8,9,9,10,10,11,11,12,12,13,13,14,14,15,15,16,16,17,17,18,18,19,19,20,20,21,21,22,22,23,23,24,24,25,25,26,26,27,27,28,28,29,29,30,30,31,31,32,32,35,35,36,36,37,37,38,38,39,39,40,40,41,41,42,42,43,43,44,44,45,45,46,46,47,47,48,48,49,49,50,50,51,51,52,52,53,53,54,54,55,55,56,56,57,57,58,58,59,59,61,61,62,62],"right_children":[2,4,6,8,10,12,14,16,18,20,22,24,26,28,30,32,34,36,38,40,42,44,46,48,50,52,54,56,58,60,62,64,66,-1,-1,68,70,72,74,76,78,80,82,84,86,88,90,92,94,96,98,100,102,104,106,108,110,112,114,116,-1,118,120,-1,-1,-1,-1,-1,-1,-1,-1,-1,-1,-1,-1,-1,-1,-1,-1,-1,-1,-1,-1,-1,-1,-1,-1,-1,-1,-1,-1,-1,-1,-1,-1,-1,-1,-1,-1,-1,-1,-1,-1,-1,-1,-1,-1,-1,-1,-1,-1,-1,-1,-1,-1,-1,-1,-1,-1,-1,-1],"split_conditions":[8.546E1,8.06E1,9.32E1,7.7E1,1.4E1,1.6E1,9.68E1,2.3E1,1.3E1,8.24E1,1.4975083E1,8.96E1,8.96E1,6.9593744E0,2.3E1,5E0,1.4322641E1,7.862E1,8.160695E0,2E0,8.348E1,3E0,8.258E1,1E1,1E0,2.3E1,2.2E1,1.8E1,2.6E1,1.004E2,2E0,1E0,1.7E1,-6.11903E-1,1.3889146E0,1.2E1,4E0,1.9E1,2.1E1,1E0,3E0,1.1184709E0,8E0,1.6E1,2E1,1.9E1,7E0,5.8409038E0,2.3E1,2.4E1,9E0,3.1E1,1.5767333E1,9.104E1,1E0,6E0,2.3E1,6E0,1.7212025E1,1.5767333E1,1.7756958E0,1.3E1,6.0273156E0,-2.6300508E-1,-7.14087E-1,-3.847548E-1,1.9751282E-1,-5.1913345E-1,-3.9973703E-1,-5.06909E-1,-3.8658923E-1,-1.5843672E-1,-4.9593872E-1,-6.3066185E-1,-7.9863995E-2,7.0071375E-1,-2.5703597E-1,-5.824023E-1,-2.913629E-1,-3.449481E-1,-1.7622533E-1,-1.9858544E-1,-7.228471E-2,1.4004204E-1,-1.8808727E-1,8.290036E-2,2.7025956E-1,-4.0989306E-2,-1.0651269E0,-7.9369813E-1,4.3414593E-2,3.1173196E-1,1.3502076E-2,2.9098424E-1,8.8722795E-2,2.7536973E-1,5.214972E-1,-1.18238695E-1,2.401144E-1,2.9884294E-1,7.510974E-1,1.0297205E-1,-5.834363E-1,4.821464E-1,5.821373E-1,-4.7809952E-1,4.1235286E-1,-6.1838917E-2,1.0265626E0,9.3772805E-1,6.982121E-1,6.6212547E-1,3.8912553E-1,4.509202E-1,-6.589897E-1,9.4918066E-1,2.8709415E-1,-1.0195366E0,1.0053383E0,1.7201729E-1,9.8379695E-1],"split_indices":[3,3,3,3,0,0,3,0,0,3,4,3,3,4,0,1,4,3,4,1,3,1,3,0,0,0,0,0,2,3,1,1,0,0,0,0,0,0,0,0,0,4,2,0,2,0,2,4,2,2,2,2,4,3,1,1,2,1,4,4,0,2,4,0,0,0,0,0,0,0,0,0,0,0,0,0,0,0,0,0,0,0,0,0,0,0,0,0,0,0,0,0,0,0,0,0,0,0,0,0,0,0,0,0,0,0,0,0,0,0,0,0,0,0,0,0,0,0,0,0,0],"split_type":[0,0,0,0,0,0,0,0,0,0,0,0,0,0,0,0,0,0,0,0,0,0,0,0,0,0,0,0,0,0,0,0,0,0,0,0,0,0,0,0,0,0,0,0,0,0,0,0,0,0,0,0,0,0,0,0,0,0,0,0,0,0,0,0,0,0,0,0,0,0,0,0,0,0,0,0,0,0,0,0,0,0,0,0,0,0,0,0,0,0,0,0,0,0,0,0,0,0,0,0,0,0,0,0,0,0,0,0,0,0,0,0,0,0,0,0,0,0,0,0,0],"sum_hessian":[3.669E3,2.256E3,1.413E3,9.37E2,1.319E3,1.016E3,3.97E2,1.27E2,8.1E2,9.61E2,3.58E2,3.69E2,6.47E2,3.26E2,7.1E1,1.23E2,4E0,6.3E2,1.8E2,5.13E2,4.48E2,3.45E2,1.3E1,2.4E2,1.29E2,2.8E2,3.67E2,7.9E1,2.47E2,6E1,1.1E1,1.06E2,1.7E1,3E0,1E0,2.2E2,4.1E2,1.52E2,2.8E1,1.62E2,3.51E2,2.86E2,1.62E2,1.6E2,1.85E2,5E0,8E0,1.81E2,5.9E1,5.4E1,7.5E1,2.54E2,2.6E1,2.84E2,8.3E1,7E0,7.2E1,2.16E2,3.1E1,5.5E1,5E0,4E0,7E0,5E0,1.01E2,1.5E1,2E0,1.79E2,4.1E1,1.9E1,3.91E2,1.39E2,1.3E1,2E1,8E0,1E0,1.61E2,1.1E1,3.4E2,1.5E1,2.71E2,2.9E1,1.33E2,8.3E1,7.7E1,1.23E2,6.2E1,1E0,4E0,1E0,7E0,1.2E1,1.69E2,4.1E1,1.8E1,3.6E1,1.8E1,1E1,6.5E1,2.46E2,8E0,2.2E1,4E0,1.55E2,1.29E2,6E0,7.7E1,5E0,2E0,5.1E1,2.1E1,1.85E2,3.1E1,3E1,1E0,5.3E1,2E0,2E0,2E0,1E0,6E0],"tree_param":{"num_deleted":"0","num_feature":"5","num_nodes":"121","size_leaf_vector":"1"}},{"base_weights":[5.737207E-3,-5.277705E-1,1.1649703E0,-8.260118E-1,-6.1648663E-2,8.8833797E-1,1.6902857E0,-1.1999625E0,-6.964862E-1,-3.1321076E-1,2.5022247E-1,4.5005628E-1,1.0461925E0,1.612561E0,3.0088391E0,-2.126064E0,-1.1203389E0,-7.754701E-1,-1.3983336E-1,-4.363903E-1,-1.7497148E-1,3.1803203E-1,-8.854248E-1,7.686905E-1,2.7657443E-1,1.1240227E0,7.26226E-1,1.9236763E0,1.401732E0,1.421341E0,3.7010639E0,-2.3384066E0,-1.6123581E-1,-1.27329E0,-9.01084E-1,-8.901821E-1,-6.66802E-1,1.33517E-1,-1.218987E0,-4.239635E-1,-4.4144213E-1,1.4217408E-2,-3.3958656E-1,-3.331406E-2,4.856964E-1,-3.5052643E0,-3.6884376E-1,-9.387131E-1,8.31785E-1,1.13725485E-2,4.466871E-1,8.878219E-1,1.2488354E0,-7.102165E-1,8.5863566E-1,1.2061877E0,2.1157355E0,8.21226E-1,1.4952803E0,2.6459534E0,-4.6475983E-1,1.11277774E-1,3.9286957E0,-7.4925494E-1,-4.0958104E-1,1.6551971E-1,-3.4502107E-1,-4.4357672E-1,-3.35572E-1,-2.4756107E-1,-8.946314E-1,3.4350932E-1,-2.6903403E-1,-1.9824396E-1,-5.635586E-1,1.3284118E-1,-1.6724886E-1,3.7086928E-1,-4.6494865E-1,-1.4097041E-1,-4.8500948E-2,-1.0261733E-1,9.4888836E-2,-2.1280599E-1,-6.498553E-2,9.13883E-3,-4.228779E-1,1.21231966E-1,3.199612E-1,-1.4369035E0,5.2196506E-2,-7.3185517E-3,-1.1403397E0,3.2514155E-1,-7.475624E-1,3.9421383E-1,1.6361344E-1,2.4450827E-1,-3.2568816E-2,-2.702054E-3,1.5329887E-1,2.386217E-1,5.1474917E-1,4.355052E-1,3.3504224E-1,2.361047E-1,-9.4584566E-1,1.4569074E-1,3.6453703E-1,-9.1126256E-2,3.9301544E-1,6.941124E-1,4.929822E-1,-8.870949E-1,3.4493095E-1,3.7216642E-1,5.7788044E-1,9.7741246E-1,2.96402E-2,-1.279437E0,6.6705406E-1,7.3993266E-1,1.3602897E0],"categories":[],"categories_nodes":[],"categories_segments":[],"categories_sizes":[],"default_left":[0,0,0,0,0,0,0,0,0,0,0,0,0,0,0,0,0,0,0,0,0,0,0,0,0,0,0,0,0,0,0,0,0,0,0,0,0,0,0,0,0,0,0,0,0,0,0,0,0,0,0,0,0,0,0,0,0,0,0,0,0,0,0,0,0,0,0,0,0,0,0,0,0,0,0,0,0,0,0,0,0,0,0,0,0,0,0,0,0,0,0,0,0,0,0,0,0,0,0,0,0,0,0,0,0,0,0,0,0,0,0,0,0,0,0,0,0,0,0,0,0,0,0],"id":5,"left_children":[1,3,5,7,9,11,13,15,17,19,21,23,25,27,29,31,33,35,37,39,41,43,45,47,49,51,53,55,57,59,61,63,65,67,69,71,73,75,77,79,-1,81,83,85,87,89,91,93,95,97,99,101,103,105,107,109,111,113,115,117,119,-1,121,-1,-1,-1,-1,-1,-1,-1,-1,-1,-1,-1,-1,-1,-1,-1,-1,-1,-1,-1,-1,-1,-1,-1,-1,-1,-1,-1,-1,-1,-1,-1,-1,-1,-1,-1,-1,-1,-1,-1,-1,-1,-1,-1,-1,-1,-1,-1,-1,-1,-1,-1,-1,-1,-1,-1,-1,-1,-1,-1,-1],"loss_changes":[2.270362E3,3.494372E2,1.6663281E2,7.341687E1,7.712115E1,5.210956E1,3.5936646E1,2.6597778E1,5.0057434E1,9.187016E0,3.4087982E1,1.1008686E1,1.307959E1,2.209729E1,1.7816544E1,1.2139465E1,1.1059509E1,1.1859497E1,4.23459E1,3.067768E0,8.039811E0,2.4463089E1,3.2541092E1,8.429478E0,5.9951086E0,1.2069275E1,2.1912098E1,1.8118103E1,1.1208008E1,1.9707674E1,9.15538E0,7.707825E-1,3.4545608E0,5.079895E0,2.1699196E1,7.512726E0,2.510437E0,2.4824818E1,2.547231E1,3.3580513E0,0E0,1.313059E1,6.1211348E0,1.1892524E1,1.2885803E1,1.973608E1,2.5916704E1,1.21245985E1,8.8138275E0,5.1969695E0,2.3783302E0,1.0725616E1,6.1454163E0,3.9052742E1,1.3105782E1,5.730091E0,7.1414795E0,4.560429E1,1.912793E1,7.4735107E0,5.034489E1,0E0,3.284912E-1,0E0,0E0,0E0,0E0,0E0,0E0,0E0,0E0,0E0,0E0,0E0,0E0,0E0,0E0,0E0,0E0,0E0,0E0,0E0,0E0,0E0,0E0,0E0,0E0,0E0,0E0,0E0,0E0,0E0,0E0,0E0,0E0,0E0,0E0,0E0,0E0,0E0,0E0,0E0,0E0,0E0,0E0,0E0,0E0,0E0,0E0,0E0,0E0,0E0,0E0,0E0,0E0,0E0,0E0,0E0,0E0,0E0,0E0,0E0,0E0],"parents":[2147483647,0,0,1,1,2,2,3,3,4,4,5,5,6,6,7,7,8,8,9,9,10,10,11,11,12,12,13,13,14,14,15,15,16,16,17,17,18,18,19,19,20,20,21,21,22,22,23,23,24,24,25,25,26,26,27,27,28,28,29,29,30,30,31,31,32,32,33,33,34,34,35,35,36,36,37,37,38,38,39,39,41,41,42,42,43,43,44,44,45,45,46,46,47,47,48,48,49,49,50,50,51,51,52,52,53,53,54,54,55,55,56,56,57,57,58,58,59,59,60,60,62,62],"right_children":[2,4,6,8,10,12,14,16,18,20,22,24,26,28,30,32,34,36,38,40,42,44,46,48,50,52,54,56,58,60,62,64,66,68,70,72,74,76,78,80,-1,82,84,86,88,90,92,94,96,98,100,102,104,106,108,110,112,114,116,118,120,-1,122,-1,-1,-1,-1,-1,-1,-1,-1,-1,-1,-1,-1,-1,-1,-1,-1,-1,-1,-1,-1,-1,-1,-1,-1,-1,-1,-1,-1,-1,-1,-1,-1,-1,-1,-1,-1,-1,-1,-1,-1,-1,-1,-1,-1,-1,-1,-1,-1,-1,-1,-1,-1,-1,-1,-1,-1,-1,-1,-1,-1],"split_conditions":[8.78E1,8.24E1,9.32E1,7.718E1,1.4E1,3E0,9.86E1,7.448E1,1.4E1,8.348E1,2.3E1,1E0,2.2E1,8.160695E0,4E0,1.6E1,1.2E1,7.916E1,2E1,1.6155691E1,1.4E1,8.42E1,4E0,2E0,1.1806082E1,8.96E1,1E0,9E0,9.320591E0,8.160695E0,1E0,2.5E1,3E0,3E0,1.5767333E1,7.736E1,1.7398438E1,7.0007997E0,3E0,1.05012E1,-4.4144213E-1,8E0,1.9E1,2.8E1,2.1E1,8.258E1,3E1,3E0,1.3E1,6.0273156E0,9E0,3E1,1.3E1,9.104E1,1.7E1,1.1184709E0,2.3E1,1E0,9.5E1,1E0,1.2E1,1.11277774E-1,6.0273156E0,-7.4925494E-1,-4.0958104E-1,1.6551971E-1,-3.4502107E-1,-4.4357672E-1,-3.35572E-1,-2.4756107E-1,-8.946314E-1,3.4350932E-1,-2.6903403E-1,-1.9824396E-1,-5.635586E-1,1.3284118E-1,-1.6724886E-1,3.7086928E-1,-4.6494865E-1,-1.4097041E-1,-4.8500948E-2,-1.0261733E-1,9.4888836E-2,-2.1280599E-1,-6.498553E-2,9.13883E-3,-4.228779E-1,1.21231966E-1,3.199612E-1,-1.4369035E0,5.2196506E-2,-7.3185517E-3,-1.1403397E0,3.2514155E-1,-7.475624E-1,3.9421383E-1,1.6361344E-1,2.4450827E-1,-3.2568816E-2,-2.702054E-3,1.5329887E-1,2.386217E-1,5.1474917E-1,4.355052E-1,3.3504224E-1,2.361047E-1,-9.4584566E-1,1.4569074E-1,3.6453703E-1,-9.1126256E-2,3.9301544E-1,6.941124E-1,4.929822E-1,-8.870949E-1,3.4493095E-1,3.7216642E-1,5.7788044E-1,9.7741246E-1,2.96402E-2,-1.279437E0,6.6705406E-1,7.3993266E-1,1.3602897E0],"split_indices":[3,3,3,3,0,0,3,3,0,3,0,0,0,4,1,0,0,3,0,4,2,3,2,2,4,3,1,2,4,4,0,2,1,1,4,3,4,4,2,4,0,2,2,2,0,3,2,1,2,4,2,2,2,3,2,4,2,0,3,1,2,0,4,0,0,0,0,0,0,0,0,0,0,0,0,0,0,0,0,0,0,0,0,0,0,0,0,0,0,0,0,0,0,0,0,0,0,0,0,0,0,0,0,0,0,0,0,0,0,0,0,0,0,0,0,0,0,0,0,0,0,0,0],"split_type":[0,0,0,0,0,0,0,0,0,0,0,0,0,0,0,0,0,0,0,0,0,0,0,0,0,0,0,0,0,0,0,0,0,0,0,0,0,0,0,0,0,0,0,0,0,0,0,0,0,0,0,0,0,0,0,0,0,0,0,0,0,0,0,0,0,0,0,0,0,0,0,0,0,0,0,0,0,0,0,0,0,0,0,0,0,0,0,0,0,0,0,0,0,0,0,0,0,0,0,0,0,0,0,0,0,0,0,0,0,0,0,0,0,0,0,0,0,0,0,0,0,0,0],"sum_hessian":[3.669E3,2.513E3,1.156E3,1.532E3,9.81E2,7.59E2,3.97E2,3.92E2,1.14E3,5.43E2,4.38E2,2.02E2,5.57E2,3.77E2,2E1,2.9E1,3.63E2,9.98E2,1.42E2,2.86E2,2.57E2,4.14E2,2.4E1,7E1,1.32E2,4.46E2,1.11E2,1.49E2,2.28E2,7E0,1.3E1,2.6E1,3E0,2.11E2,1.52E2,4.82E2,5.16E2,1.14E2,2.8E1,2.84E2,2E0,1.2E2,1.37E2,1.34E2,2.8E2,3E0,2.1E1,2E0,6.8E1,5.2E1,8E1,1.57E2,2.89E2,9E0,1.02E2,3.3E1,1.16E2,3.3E1,1.95E2,4E0,3E0,1E0,1.2E1,2.1E1,5E0,2E0,1E0,8.7E1,1.24E2,1.48E2,4E0,1E0,4.81E2,5.15E2,1E0,7.9E1,3.5E1,3E0,2.5E1,2.41E2,4.3E1,5.5E1,6.5E1,3.3E1,1.04E2,1.29E2,5E0,2.47E2,3.3E1,2E0,1E0,2E1,1E0,1E0,1E0,2.4E1,4.4E1,6E0,4.6E1,1E1,7E1,1.43E2,1.4E1,1.1E2,1.79E2,6E0,3E0,5.1E1,5.1E1,2E0,3.1E1,7.9E1,3.7E1,2E0,3.1E1,1.25E2,7E1,3E0,1E0,1E0,2E0,5E0,7E0],"tree_param":{"num_deleted":"0","num_feature":"5","num_nodes":"123","size_leaf_vector":"1"}},{"base_weights":[3.6960093E-3,-4.3559456E-1,7.0488065E-1,-6.9510365E-1,-2.515279E-1,4.1113353E-1,1.0625422E0,-1.5328573E0,-6.666277E-1,-3.719294E-1,7.124479E-2,1.0996324E-1,5.4127175E-1,9.817349E-1,1.68302E0,1.8518716E-1,-1.6282861E0,-7.659166E-1,-4.9957943E-1,-4.6789566E-1,-2.6102838E-1,1.2305932E-1,-1.2181042E0,5.735519E-1,3.7061773E-2,5.87012E-1,-4.8587225E-2,6.369433E-1,1.0635115E0,2.3944514E0,1.4700115E0,-1.6896384E0,1.3436508E-2,-8.9498025E-1,-6.8690705E-1,-4.67767E-1,-6.593437E-1,-4.6259293E-1,-4.7902453E-1,-1.4595667E-1,-3.441153E-1,-6.4781E-2,3.851871E-1,-1.7215264E0,3.236084E-2,2.6691073E-1,1.0623779E0,2.6261187E-1,-2.2176711E-1,3.6987966E-1,6.897178E-1,5.7530653E-1,-5.851961E-1,1.2475133E0,5.1324964E-1,1.1818215E0,7.935738E-1,1.3895165E0,3.6702678E0,1.6463456E0,4.5897293E-1,-2.3925133E-1,-5.54672E-1,-3.0491072E-1,-2.2465836E-1,1.6522981E-2,-2.0929006E-1,-1.4955682E-1,9.3368685E-1,-1.4073218E-1,2.4101411E-1,5.13758E-2,-5.5284835E-2,-1.2235162E-1,-1.3994664E-2,1.2688807E-1,-8.3184674E-2,2.660273E-1,5.963153E-2,2.7458955E-2,-6.558695E-1,-8.167763E-2,1.876259E-1,1.11824684E-1,-2.7747804E-1,5.997214E-1,1.5840836E-1,-8.352684E-2,1.2031034E-1,5.4471586E-3,-1.1587332E-1,5.1475544E-2,2.495289E-1,2.3139046E-1,9.736855E-2,-2.4743348E-1,2.3656164E-1,-7.818478E-1,-3.8679104E-2,1.69798E-1,4.8892617E-1,1.13265E-1,2.9009673E-1,4.0945616E-1,2.499425E-1,-3.5423387E-2,3.245006E-1,5.2185062E-2,4.515755E-1,2.6835823E-1,1.2139531E0,7.004088E-1,3.9987662E-1,-1.0875218E0,3.946625E-1],"categories":[],"categories_nodes":[],"categories_segments":[],"categories_sizes":[],"default_left":[0,0,0,0,0,0,0,0,0,0,0,0,0,0,0,0,0,0,0,0,0,0,0,0,0,0,0,0,0,0,0,0,0,0,0,0,0,0,0,0,0,0,0,0,0,0,0,0,0,0,0,0,0,0,0,0,0,0,0,0,0,0,0,0,0,0,0,0,0,0,0,0,0,0,0,0,0,0,0,0,0,0,0,0,0,0,0,0,0,0,0,0,0,0,0,0,0,0,0,0,0,0,0,0,0,0,0,0,0,0,0,0,0,0,0],"id":6,"left_children":[1,3,5,7,9,11,13,15,17,19,21,23,25,27,29,-1,31,33,35,37,39,41,43,45,47,49,51,53,55,57,59,61,-1,63,65,67,-1,69,-1,71,73,75,77,79,81,83,85,87,89,91,93,95,97,99,101,103,105,107,109,111,113,-1,-1,-1,-1,-1,-1,-1,-1,-1,-1,-1,-1,-1,-1,-1,-1,-1,-1,-1,-1,-1,-1,-1,-1,-1,-1,-1,-1,-1,-1,-1,-1,-1,-1,-1,-1,-1,-1,-1,-1,-1,-1,-1,-1,-1,-1,-1,-1,-1,-1,-1,-1,-1,-1],"loss_changes":[1.1307543E3,1.0763519E2,1.4812085E2,2.130722E1,5.140249E1,3.0433243E1,3.0286377E1,7.160713E0,1.466095E1,1.0126831E1,2.4200422E1,7.954667E0,1.4678818E1,1.5281494E1,7.3910675E0,0E0,3.0524368E0,5.167053E0,1.739444E1,2.3441467E0,4.2426434E0,1.7110598E1,8.8688755E0,4.513054E0,1.2025909E1,1.0984467E1,1.3728143E1,7.742836E0,1.3625122E1,1.413179E1,9.584648E0,2.5039597E0,0E0,2.999176E0,2.8717804E0,3.854754E1,0E0,4.615799E0,0E0,2.341465E0,4.909422E0,2.1157337E1,1.3381302E1,8.625475E0,1.0735626E0,2.9937468E0,4.9507008E0,8.349712E0,3.7953744E0,1.4877869E1,9.908325E0,6.3226905E0,1.9950104E1,3.766653E0,5.4227104E0,1.8966064E1,3.7422905E1,1.1449986E0,2.6464005E0,7.459549E0,3.9751587E1,0E0,0E0,0E0,0E0,0E0,0E0,0E0,0E0,0E0,0E0,0E0,0E0,0E0,0E0,0E0,0E0,0E0,0E0,0E0,0E0,0E0,0E0,0E0,0E0,0E0,0E0,0E0,0E0,0E0,0E0,0E0,0E0,0E0,0E0,0E0,0E0,0E0,0E0,0E0,0E0,0E0,0E0,0E0,0E0,0E0,0E0,0E0,0E0,0E0,0E0,0E0,0E0,0E0,0E0],"parents":[2147483647,0,0,1,1,2,2,3,3,4,4,5,5,6,6,7,7,8,8,9,9,10,10,11,11,12,12,13,13,14,14,16,16,17,17,18,18,19,19,20,20,21,21,22,22,23,23,24,24,25,25,26,26,27,27,28,28,29,29,30,30,31,31,33,33,34,34,35,35,37,37,39,39,40,40,41,41,42,42,43,43,44,44,45,45,46,46,47,47,48,48,49,49,50,50,51,51,52,52,53,53,54,54,55,55,56,56,57,57,58,58,59,59,60,60],"right_children":[2,4,6,8,10,12,14,16,18,20,22,24,26,28,30,-1,32,34,36,38,40,42,44,46,48,50,52,54,56,58,60,62,-1,64,66,68,-1,70,-1,72,74,76,78,80,82,84,86,88,90,92,94,96,98,100,102,104,106,108,110,112,114,-1,-1,-1,-1,-1,-1,-1,-1,-1,-1,-1,-1,-1,-1,-1,-1,-1,-1,-1,-1,-1,-1,-1,-1,-1,-1,-1,-1,-1,-1,-1,-1,-1,-1,-1,-1,-1,-1,-1,-1,-1,-1,-1,-1,-1,-1,-1,-1,-1,-1,-1,-1,-1,-1],"split_conditions":[8.546E1,8.006E1,9.104E1,7.448E1,1.4E1,5E0,9.68E1,2E0,1.2E1,8.24E1,1.4975083E1,6.0273156E0,2.3E1,3E0,1.1E1,1.8518716E-1,2.2E1,7.718E1,1.5767333E1,1.7398438E1,4E0,6.9593744E0,1.7398438E1,4E0,2E0,8.78E1,9.320591E0,1E0,2.2E1,6E0,2.3E1,1.1184709E0,1.3436508E-2,4E0,7.79E1,1.4322641E1,-6.593437E-1,1.6155691E1,-4.7902453E-1,1E0,1.05012E1,1.1184709E0,7.0007997E0,1.9E1,4E0,4E0,5E0,6E0,1.4E1,2.4E1,2.7E1,2E0,8.78E1,1.287795E1,6E0,2.1E1,2E0,4E0,1E0,1E0,1.2E1,-2.3925133E-1,-5.54672E-1,-3.0491072E-1,-2.2465836E-1,1.6522981E-2,-2.0929006E-1,-1.4955682E-1,9.3368685E-1,-1.4073218E-1,2.4101411E-1,5.13758E-2,-5.5284835E-2,-1.2235162E-1,-1.3994664E-2,1.2688807E-1,-8.3184674E-2,2.660273E-1,5.963153E-2,2.7458955E-2,-6.558695E-1,-8.167763E-2,1.876259E-1,1.11824684E-1,-2.7747804E-1,5.997214E-1,1.5840836E-1,-8.352684E-2,1.2031034E-1,5.4471586E-3,-1.1587332E-1,5.1475544E-2,2.495289E-1,2.3139046E-1,9.736855E-2,-2.4743348E-1,2.3656164E-1,-7.818478E-1,-3.8679104E-2,1.69798E-1,4.8892617E-1,1.13265E-1,2.9009673E-1,4.0945616E-1,2.499425E-1,-3.5423387E-2,3.245006E-1,5.2185062E-2,4.515755E-1,2.6835823E-1,1.2139531E0,7.004088E-1,3.9987662E-1,-1.0875218E0,3.946625E-1],"split_indices":[3,3,3,3,0,0,3,1,0,3,4,4,0,0,2,0,0,3,4,4,0,4,4,1,0,3,4,1,0,1,0,4,0,1,3,4,0,4,0,0,4,4,4,0,1,0,1,2,2,2,2,2,3,4,1,2,1,1,0,1,2,0,0,0,0,0,0,0,0,0,0,0,0,0,0,0,0,0,0,0,0,0,0,0,0,0,0,0,0,0,0,0,0,0,0,0,0,0,0,0,0,0,0,0,0,0,0,0,0,0,0,0,0,0,0],"split_type":[0,0,0,0,0,0,0,0,0,0,0,0,0,0,0,0,0,0,0,0,0,0,0,0,0,0,0,0,0,0,0,0,0,0,0,0,0,0,0,0,0,0,0,0,0,0,0,0,0,0,0,0,0,0,0,0,0,0,0,0,0,0,0,0,0,0,0,0,0,0,0,0,0,0,0,0,0,0,0,0,0,0,0,0,0,0,0,0,0,0,0,0,0,0,0,0,0,0,0,0,0,0,0,0,0,0,0,0,0,0,0,0,0,0,0],"sum_hessian":[3.669E3,2.256E3,1.413E3,9.35E2,1.321E3,7.77E2,6.36E2,2.9E1,9.06E2,9.62E2,3.59E2,2.35E2,5.42E2,5.65E2,7.1E1,1E0,2.8E1,5.66E2,3.4E2,5.14E2,4.48E2,3.46E2,1.3E1,3.1E1,2.04E2,5.03E2,3.9E1,1.1E2,4.55E2,1.4E1,5.7E1,2.7E1,1E0,2.11E2,3.55E2,3.35E2,5E0,5.13E2,1E0,1.89E2,2.59E2,2.02E2,1.44E2,9E0,4E0,2E1,1.1E1,1.09E2,9.5E1,1.63E2,3.4E2,1.8E1,2.1E1,1.7E1,9.3E1,3.14E2,1.41E2,9E0,5E0,4.8E1,9E0,5E0,2.2E1,1.12E2,9.9E1,5E0,3.5E2,3.33E2,2E0,5.11E2,2E0,2E1,1.69E2,2.13E2,4.6E1,6.1E1,1.41E2,3.8E1,1.06E2,2E0,7E0,3E0,1E0,1.9E1,1E0,3E0,8E0,2.2E1,8.7E1,3.9E1,5.6E1,1.15E2,4.8E1,2.77E2,6.3E1,2E0,1.6E1,3E0,1.8E1,7E0,1E1,7.3E1,2E1,2.04E2,1.1E2,3.4E1,1.07E2,1E0,8E0,1E0,4E0,1.3E1,3.5E1,1E0,8E0],"tree_param":{"num_deleted":"0","num_feature":"5","num_nodes":"115","size_leaf_vector":"1"}},{"base_weights":[3.3655108E-3,-2.6275977E-1,5.816158E-1,-3.6035115E-1,8.156452E-2,4.3202278E-1,8.6580944E-1,-6.136731E-1,-2.9658863E-1,-1.0366008E-1,2.5678936E-1,8.135695E-1,3.8149062E-1,8.1630564E-1,1.7156492E0,-8.3581954E-1,-4.6703553E-1,-3.4334064E-1,-8.325683E-2,4.9660027E-2,-2.3922475E-1,4.1882706E-1,-5.351242E-2,4.8883346E-1,1.1271957E0,3.1257182E-1,5.288619E-1,5.518934E-1,9.416813E-1,7.682581E-1,2.1344693E0,-7.4672455E-1,-1.9342693E0,4.5123455E-1,-5.2185297E-1,-4.9641612E-1,-3.0716622E-1,1.0727715E0,-1.08913094E-1,-2.076942E-1,2.5270906E-1,-1.2933968E-1,-6.705159E-1,-9.8108E-2,5.254939E-1,-4.9639982E-1,4.0854412E-1,1.0304193E0,1.8369319E-1,1.0114521E0,7.115624E-1,3.7625542E-1,-2.0203145E-2,3.1336436E-1,7.7854407E-1,7.888181E-1,3.3855724E-1,1.1003726E0,6.4856124E-1,1.5533584E0,-4.0518188E-1,3.4604646E-2,2.280913E0,-2.4969342E-1,1.4757867E-1,-1.7877503E-1,-6.4964044E-1,-6.3632965E-2,8.862603E-1,-1.1242196E-1,-2.6895922E-1,-1.1938223E-1,-1.9993922E-1,-9.077912E-2,-5.366242E-1,5.8417227E-3,-1.8481189E-1,-5.007872E-1,9.094529E-3,4.463031E-1,4.7455892E-2,-1.5786676E-1,-9.073237E-4,-2.4800994E-1,2.875931E-1,-3.2878014E-1,1.5727964E-1,1.9550796E-1,5.0230954E-2,-8.370481E-2,-8.942717E-1,4.4242963E-2,6.764847E-1,-4.649658E-2,3.632502E-1,2.6687378E-1,-1.0089557E-1,3.6623096E-1,9.317322E-2,4.8091415E-2,1.4146376E-1,-1.2012928E-1,1.6904587E-1,-2.7597156E-1,1.5168935E-1,1.3371797E-1,3.3906087E-1,2.8031513E-2,2.904571E-1,1.7403555E-1,-2.4508248E-1,3.6161917E-1,1.2123523E-1,2.110682E-1,-6.5345764E-1,5.9990335E-1,-3.478775E-2,-9.243931E-1,4.541893E-1,7.2441256E-1,1.01305395E-1],"categories":[],"categories_nodes":[],"categories_segments":[],"categories_sizes":[],"default_left":[0,0,0,0,0,0,0,0,0,0,0,0,0,0,0,0,0,0,0,0,0,0,0,0,0,0,0,0,0,0,0,0,0,0,0,0,0,0,0,0,0,0,0,0,0,0,0,0,0,0,0,0,0,0,0,0,0,0,0,0,0,0,0,0,0,0,0,0,0,0,0,0,0,0,0,0,0,0,0,0,0,0,0,0,0,0,0,0,0,0,0,0,0,0,0,0,0,0,0,0,0,0,0,0,0,0,0,0,0,0,0,0,0,0,0,0,0,0,0,0,0],"id":7,"left_children":[1,3,5,7,9,11,13,15,17,19,21,23,25,27,29,31,33,35,37,39,41,43,45,47,49,51,53,55,57,59,61,63,65,67,69,71,73,-1,75,77,79,81,83,85,87,89,91,93,95,97,-1,99,101,103,105,107,109,111,113,115,117,-1,119,-1,-1,-1,-1,-1,-1,-1,-1,-1,-1,-1,-1,-1,-1,-1,-1,-1,-1,-1,-1,-1,-1,-1,-1,-1,-1,-1,-1,-1,-1,-1,-1,-1,-1,-1,-1,-1,-1,-1,-1,-1,-1,-1,-1,-1,-1,-1,-1,-1,-1,-1,-1,-1,-1,-1,-1,-1,-1],"loss_changes":[5.6491815E2,8.450754E1,4.8813934E1,3.1460648E1,1.8072128E1,1.4342728E1,1.5343475E1,1.2411606E1,1.5600174E1,5.644559E0,1.4402657E1,8.411415E0,6.670105E0,1.2011337E1,6.6926956E0,1.3724915E1,1.2266075E1,6.9631042E0,2.695762E1,6.741194E0,6.73779E0,1.0417847E1,2.0462065E1,7.247402E0,3.939762E0,9.77726E0,1.121669E1,6.000469E0,1.1147827E1,7.999538E0,3.8765373E0,1.5781242E1,2.1132355E0,2.3871216E1,1.2121159E1,3.8206978E0,6.5126038E0,0E0,1.8372364E1,1.9879395E1,8.169416E0,5.8137617E0,8.171511E0,2.106823E1,6.939991E0,2.6712934E1,2.3287231E1,3.6095066E0,1.1311253E1,5.78249E0,0E0,7.8881073E0,1.6870754E1,2.7970684E1,1.0965981E1,7.143978E0,1.9175213E1,1.1505188E1,1.5835709E1,3.9571238E0,2.5208523E1,0E0,2.5645218E0,0E0,0E0,0E0,0E0,0E0,0E0,0E0,0E0,0E0,0E0,0E0,0E0,0E0,0E0,0E0,0E0,0E0,0E0,0E0,0E0,0E0,0E0,0E0,0E0,0E0,0E0,0E0,0E0,0E0,0E0,0E0,0E0,0E0,0E0,0E0,0E0,0E0,0E0,0E0,0E0,0E0,0E0,0E0,0E0,0E0,0E0,0E0,0E0,0E0,0E0,0E0,0E0,0E0,0E0,0E0,0E0,0E0,0E0],"parents":[2147483647,0,0,1,1,2,2,3,3,4,4,5,5,6,6,7,7,8,8,9,9,10,10,11,11,12,12,13,13,14,14,15,15,16,16,17,17,18,18,19,19,20,20,21,21,22,22,23,23,24,24,25,25,26,26,27,27,28,28,29,29,30,30,31,31,32,32,33,33,34,34,35,35,36,36,38,38,39,39,40,40,41,41,42,42,43,43,44,44,45,45,46,46,47,47,48,48,49,49,51,51,52,52,53,53,54,54,55,55,56,56,57,57,58,58,59,59,60,60,62,62],"right_children":[2,4,6,8,10,12,14,16,18,20,22,24,26,28,30,32,34,36,38,40,42,44,46,48,50,52,54,56,58,60,62,64,66,68,70,72,74,-1,76,78,80,82,84,86,88,90,92,94,96,98,-1,100,102,104,106,108,110,112,114,116,118,-1,120,-1,-1,-1,-1,-1,-1,-1,-1,-1,-1,-1,-1,-1,-1,-1,-1,-1,-1,-1,-1,-1,-1,-1,-1,-1,-1,-1,-1,-1,-1,-1,-1,-1,-1,-1,-1,-1,-1,-1,-1,-1,-1,-1,-1,-1,-1,-1,-1,-1,-1,-1,-1,-1,-1,-1,-1,-1,-1],"split_conditions":[8.78E1,8.348E1,9.32E1,7.718E1,1.5E1,4.9088445E0,9.86E1,1E1,1.4E1,1.4E1,1.8E1,4E0,9.104E1,1.2E1,4E0,9.320591E0,1.2E1,1.1184709E0,7.88E1,8E0,4E0,3.7903738E0,3E0,1E0,2.2E1,2.7E1,1.1806082E1,8.160695E0,2.3E1,8.160695E0,1E0,1.7E1,1E0,1.3E1,4.9088445E0,2.4E1,1.7398438E1,1.0727715E0,2E1,1E0,1E0,1.9E1,1.1806082E1,1.5E1,2.3E1,1.5767333E1,2.7E1,2E0,1.5E1,1.9E1,7.115624E-1,5E0,1.05012E1,1E0,3E0,4E0,1.1E1,2.3E1,1.7212025E1,1E0,1.2E1,3.4604646E-2,1.1806082E1,-2.4969342E-1,1.4757867E-1,-1.7877503E-1,-6.4964044E-1,-6.3632965E-2,8.862603E-1,-1.1242196E-1,-2.6895922E-1,-1.1938223E-1,-1.9993922E-1,-9.077912E-2,-5.366242E-1,5.8417227E-3,-1.8481189E-1,-5.007872E-1,9.094529E-3,4.463031E-1,4.7455892E-2,-1.5786676E-1,-9.073237E-4,-2.4800994E-1,2.875931E-1,-3.2878014E-1,1.5727964E-1,1.9550796E-1,5.0230954E-2,-8.370481E-2,-8.942717E-1,4.4242963E-2,6.764847E-1,-4.649658E-2,3.632502E-1,2.6687378E-1,-1.0089557E-1,3.6623096E-1,9.317322E-2,4.8091415E-2,1.4146376E-1,-1.2012928E-1,1.6904587E-1,-2.7597156E-1,1.5168935E-1,1.3371797E-1,3.3906087E-1,2.8031513E-2,2.904571E-1,1.7403555E-1,-2.4508248E-1,3.6161917E-1,1.2123523E-1,2.110682E-1,-6.5345764E-1,5.9990335E-1,-3.478775E-2,-9.243931E-1,4.541893E-1,7.2441256E-1,1.01305395E-1],"split_indices":[3,3,3,3,0,4,3,2,0,2,0,1,3,2,1,4,2,4,3,2,0,4,1,1,0,2,4,4,2,4,0,0,0,0,4,2,4,0,0,1,0,2,4,2,2,4,2,0,2,0,0,0,4,1,0,2,2,0,4,1,2,0,4,0,0,0,0,0,0,0,0,0,0,0,0,0,0,0,0,0,0,0,0,0,0,0,0,0,0,0,0,0,0,0,0,0,0,0,0,0,0,0,0,0,0,0,0,0,0,0,0,0,0,0,0,0,0,0,0,0,0],"split_type":[0,0,0,0,0,0,0,0,0,0,0,0,0,0,0,0,0,0,0,0,0,0,0,0,0,0,0,0,0,0,0,0,0,0,0,0,0,0,0,0,0,0,0,0,0,0,0,0,0,0,0,0,0,0,0,0,0,0,0,0,0,0,0,0,0,0,0,0,0,0,0,0,0,0,0,0,0,0,0,0,0,0,0,0,0,0,0,0,0,0,0,0,0,0,0,0,0,0,0,0,0,0,0,0,0,0,0,0,0,0,0,0,0,0,0,0,0,0,0,0,0],"sum_hessian":[3.669E3,2.513E3,1.156E3,1.958E3,5.55E2,7.59E2,3.97E2,3.92E2,1.566E3,2.7E2,2.85E2,8.7E1,6.72E2,3.77E2,2E1,1.54E2,2.38E2,1.284E3,2.82E2,1.27E2,1.43E2,1.87E2,9.8E1,4.4E1,4.3E1,4.6E2,2.12E2,1.23E2,2.54E2,7E0,1.3E1,1.44E2,1E1,1.3E1,2.25E2,2.43E2,1.041E3,1E0,2.81E2,5.6E1,7.1E1,1.15E2,2.8E1,3.2E1,1.55E2,5E1,4.8E1,1.5E1,2.9E1,4.1E1,2E0,3.86E2,7.4E1,1.15E2,9.7E1,5.7E1,6.6E1,1.63E2,9.1E1,4E0,3E0,1E0,1.2E1,1.35E2,9E0,2E0,8E0,1.1E1,2E0,1.63E2,6.2E1,1.56E2,8.7E1,1.039E3,2E0,2.25E2,5.6E1,7E0,4.9E1,4E0,6.7E1,2.7E1,8.8E1,2.6E1,2E0,1.2E1,2E1,1.14E2,4.1E1,4.7E1,3E0,4.3E1,5E0,2E0,1.3E1,1.2E1,1.7E1,3.1E1,1E1,1.19E2,2.67E2,4.5E1,2.9E1,1.5E1,1E2,5.1E1,4.6E1,1.2E1,4.5E1,5.5E1,1.1E1,1.41E2,2.2E1,9E1,1E0,3E0,1E0,1E0,2E0,1.1E1,1E0],"tree_param":{"num_deleted":"0","num_feature":"5","num_nodes":"121","size_leaf_vector":"1"}},{"base_weights":[3.0764088E-3,-1.84266E-1,4.1014275E-1,-2.9167178E-1,-1.640723E-2,3.0536494E-1,6.0919046E-1,-5.85585E-1,-2.6470694E-1,-2.3533113E-2,1.7317543E0,5.8829015E-1,2.6791653E-1,7.9926443E-1,4.7532925E-1,-2.2781464E-1,-7.4561906E-1,-3.110845E-1,-8.898975E-2,-1.1952837E-2,-8.2089126E-1,1.5284501E-1,5.908051E-1,3.5291103E-1,8.156485E-1,2.996714E-1,9.714137E-2,7.473766E-1,6.0972977E-1,-3.810162E-2,5.649222E-1,-5.891937E-1,3.1702602E-1,-8.0801815E-1,7.667656E-1,-3.7185484E-1,-2.3175496E-1,-4.4973776E-2,-1.1232853E0,-1.0200297E-1,9.370587E-2,-5.1589787E-1,-7.178707E-1,1.5387072E-1,9.5413834E-1,7.1895325E-1,1.8974991E0,1.2115742E-1,3.7016305E-1,-2.104158E-1,4.144716E-1,3.4020838E-1,8.521474E-1,-8.145016E-1,8.775514E-1,6.4826006E-1,-4.770691E-2,-9.807767E-2,-2.5382215E-1,3.0483446E-1,-1.7893897E-1,-2.9094198E-1,-4.557826E-2,9.4471896E-1,-3.2310638E-1,-1.0975735E-1,-2.7977067E-1,-3.3976514E-2,-8.549675E-2,-1.2737809E-1,3.3369385E-2,-4.5219204E-1,1.5936433E-1,-2.5482824E-2,-2.1449351E-1,3.2407843E-2,-4.5363295E-1,-6.0108376E-1,-6.748619E-2,2.2232695E-1,-9.707943E-2,-1.3476335E-1,3.4181833E-1,2.5979427E-1,6.776317E-2,1.5057564E-1,7.03299E-1,1.5235287E-1,-2.8078243E-2,4.5687534E-2,1.694774E-1,1.6811913E-2,-2.2837296E-1,1.9999696E-3,2.7208748E-1,3.5522886E-2,3.1387597E-1,2.6367408E-1,1.0193024E-2,2.0864354E-1,-8.2119244E-1,-5.764332E-2,3.3614898E-1,-6.1191065E-4,2.2217217E-1,7.813351E-2,-3.2007867E-1],"categories":[],"categories_nodes":[],"categories_segments":[],"categories_sizes":[],"default_left":[0,0,0,0,0,0,0,0,0,0,0,0,0,0,0,0,0,0,0,0,0,0,0,0,0,0,0,0,0,0,0,0,0,0,0,0,0,0,0,0,0,0,0,0,0,0,0,0,0,0,0,0,0,0,0,0,0,0,0,0,0,0,0,0,0,0,0,0,0,0,0,0,0,0,0,0,0,0,0,0,0,0,0,0,0,0,0,0,0,0,0,0,0,0,0,0,0,0,0,0,0,0,0,0,0,0,0],"id":8,"left_children":[1,3,5,7,9,11,13,15,17,19,21,23,25,27,29,31,33,35,37,39,41,-1,-1,43,45,47,49,51,-1,53,55,57,59,61,63,65,67,69,71,73,75,77,-1,79,81,83,85,87,89,91,93,95,97,99,101,103,105,-1,-1,-1,-1,-1,-1,-1,-1,-1,-1,-1,-1,-1,-1,-1,-1,-1,-1,-1,-1,-1,-1,-1,-1,-1,-1,-1,-1,-1,-1,-1,-1,-1,-1,-1,-1,-1,-1,-1,-1,-1,-1,-1,-1,-1,-1,-1,-1,-1,-1],"loss_changes":[2.799527E2,4.532013E1,2.3944107E1,1.1994507E1,1.2273717E1,7.8946686E0,9.746613E0,7.1588326E0,1.143029E1,9.02991E0,1.582756E-1,4.421505E0,3.620533E0,8.910782E0,1.087748E1,8.259444E0,8.924248E0,5.2746353E0,1.3379511E1,9.200644E0,5.477847E0,0E0,0E0,5.238267E0,3.238617E0,7.0901337E0,1.053011E1,6.4502716E0,0E0,2.630763E1,1.0293022E1,1.4076843E0,1.1462446E1,8.875221E0,2.0961403E1,1.7705383E0,3.0272255E0,1.6888014E1,8.425061E0,5.3980837E0,1.0396435E1,5.176219E0,0E0,1.0053074E1,3.3715982E0,2.8492184E0,6.9410133E-1,1.3500223E1,1.7141747E1,8.115065E0,1.0638395E1,5.2005095E0,2.70755E0,5.9971725E1,4.633213E0,1.0627113E1,8.129756E0,0E0,0E0,0E0,0E0,0E0,0E0,0E0,0E0,0E0,0E0,0E0,0E0,0E0,0E0,0E0,0E0,0E0,0E0,0E0,0E0,0E0,0E0,0E0,0E0,0E0,0E0,0E0,0E0,0E0,0E0,0E0,0E0,0E0,0E0,0E0,0E0,0E0,0E0,0E0,0E0,0E0,0E0,0E0,0E0,0E0,0E0,0E0,0E0,0E0,0E0],"parents":[2147483647,0,0,1,1,2,2,3,3,4,4,5,5,6,6,7,7,8,8,9,9,10,10,11,11,12,12,13,13,14,14,15,15,16,16,17,17,18,18,19,19,20,20,23,23,24,24,25,25,26,26,27,27,29,29,30,30,31,31,32,32,33,33,34,34,35,35,36,36,37,37,38,38,39,39,40,40,41,41,43,43,44,44,45,45,46,46,47,47,48,48,49,49,50,50,51,51,52,52,53,53,54,54,55,55,56,56],"right_children":[2,4,6,8,10,12,14,16,18,20,22,24,26,28,30,32,34,36,38,40,42,-1,-1,44,46,48,50,52,-1,54,56,58,60,62,64,66,68,70,72,74,76,78,-1,80,82,84,86,88,90,92,94,96,98,100,102,104,106,-1,-1,-1,-1,-1,-1,-1,-1,-1,-1,-1,-1,-1,-1,-1,-1,-1,-1,-1,-1,-1,-1,-1,-1,-1,-1,-1,-1,-1,-1,-1,-1,-1,-1,-1,-1,-1,-1,-1,-1,-1,-1,-1,-1,-1,-1,-1,-1,-1,-1],"split_conditions":[8.78E1,8.24E1,9.32E1,7.7E1,1.8641182E1,4.9088445E0,8.160695E0,2.3612163E0,1.3E1,1.7212025E1,1.6E1,4E0,2.2E1,1.004E2,9.320591E0,1.3E1,2.3E1,7.916E1,1.1806082E1,1E1,2.6E1,1.5284501E-1,5.908051E-1,2.7E1,2.2E1,8.947767E0,1.7E1,9E0,6.0972977E-1,1.4E1,2.6E1,1E1,1.4E1,2.6E1,1.2E1,1.5767333E1,2E0,2E0,2.6E1,9E0,1.5767333E1,7E0,-7.178707E-1,1E0,1.6E1,1.9E1,5E0,1.4E1,1.6E1,1.1E1,9.104E1,7.0007997E0,3.1E1,1.1E1,1.9E1,6E0,1.4912946E1,-9.807767E-2,-2.5382215E-1,3.0483446E-1,-1.7893897E-1,-2.9094198E-1,-4.557826E-2,9.4471896E-1,-3.2310638E-1,-1.0975735E-1,-2.7977067E-1,-3.3976514E-2,-8.549675E-2,-1.2737809E-1,3.3369385E-2,-4.5219204E-1,1.5936433E-1,-2.5482824E-2,-2.1449351E-1,3.2407843E-2,-4.5363295E-1,-6.0108376E-1,-6.748619E-2,2.2232695E-1,-9.707943E-2,-1.3476335E-1,3.4181833E-1,2.5979427E-1,6.776317E-2,1.5057564E-1,7.03299E-1,1.5235287E-1,-2.8078243E-2,4.5687534E-2,1.694774E-1,1.6811913E-2,-2.2837296E-1,1.9999696E-3,2.7208748E-1,3.5522886E-2,3.1387597E-1,2.6367408E-1,1.0193024E-2,2.0864354E-1,-8.2119244E-1,-5.764332E-2,3.3614898E-1,-6.1191065E-4,2.2217217E-1,7.813351E-2,-3.2007867E-1],"split_indices":[3,3,3,3,4,4,4,4,0,4,2,1,0,3,4,0,0,3,4,0,2,0,0,2,0,4,2,2,0,2,2,0,0,2,2,4,1,1,2,0,4,2,0,1,0,0,1,2,0,2,3,4,2,2,0,2,4,0,0,0,0,0,0,0,0,0,0,0,0,0,0,0,0,0,0,0,0,0,0,0,0,0,0,0,0,0,0,0,0,0,0,0,0,0,0,0,0,0,0,0,0,0,0,0,0,0,0],"split_type":[0,0,0,0,0,0,0,0,0,0,0,0,0,0,0,0,0,0,0,0,0,0,0,0,0,0,0,0,0,0,0,0,0,0,0,0,0,0,0,0,0,0,0,0,0,0,0,0,0,0,0,0,0,0,0,0,0,0,0,0,0,0,0,0,0,0,0,0,0,0,0,0,0,0,0,0,0,0,0,0,0,0,0,0,0,0,0,0,0,0,0,0,0,0,0,0,0,0,0,0,0,0,0,0,0,0,0],"sum_hessian":[3.669E3,2.513E3,1.156E3,1.532E3,9.81E2,7.59E2,3.97E2,1.27E2,1.405E3,9.78E2,3E0,8.7E1,6.72E2,1.62E2,2.35E2,4E1,8.7E1,1.111E3,2.94E2,9.65E2,1.3E1,1E0,2E0,4.4E1,4.3E1,5.66E2,1.06E2,1.57E2,5E0,3.5E1,2E2,2.4E1,1.6E1,8.4E1,3E0,6.27E2,4.84E2,2.83E2,1.1E1,5.21E2,4.44E2,1.2E1,1E0,3.4E1,1E1,4.1E1,2E0,1.61E2,4.05E2,5.4E1,5.2E1,3.3E1,1.24E2,1.9E1,1.6E1,1.76E2,2.4E1,1.3E1,1.1E1,9E0,7E0,6.7E1,1.7E1,1E0,2E0,6.22E2,5E0,1.51E2,3.33E2,8.2E1,2.01E2,9E0,2E0,5.08E2,1.3E1,4.41E2,3E0,1E0,1.1E1,1.5E1,1.9E1,1E0,9E0,3.1E1,1E1,1E0,1E0,5.7E1,1.04E2,1.92E2,2.13E2,3.7E1,1.7E1,2.9E1,2.3E1,2.6E1,7E0,1.2E2,4E0,1.1E1,8E0,3E0,1.3E1,2.2E1,1.54E2,1.9E1,5E0],"tree_param":{"num_deleted":"0","num_feature":"5","num_nodes":"107","size_leaf_vector":"1"}},{"base_weights":[2.3305928E-3,-1.8193938E-1,2.1364702E-1,-2.5185746E-1,-1.1771566E-1,8.03347E-2,3.3523822E-1,-2.776287E-1,1.2988867E-1,-1.0077434E-1,-4.9275467E-1,1.7490758E-1,-7.490192E-2,5.677073E-1,2.750176E-1,-2.4802755E-1,-5.784299E-1,5.0218713E-1,-1.020486E0,-1.365933E-1,5.8296163E-2,-1.9152007E-1,-1.8243704E0,3.484717E-3,2.996729E-1,6.705132E-2,-5.205828E-1,3.8683864E-1,8.411737E-1,2.5967598E-1,1.0799484E0,-3.003737E-1,-1.4319159E-1,-7.3990315E-1,9.3523026E-2,2.1209292E0,2.0635262E-1,-1.2755544E0,1.2749177E-1,-1.3175371E-1,-4.140015E-1,-9.576292E-2,7.271917E-1,-7.7676237E-1,9.4867826E-1,-1.2609048E0,-3.3098602E-1,4.056702E-1,-1.552811E-2,7.449371E-2,5.2742654E-1,-9.679922E-2,2.6214084E-1,-2.3708026E-1,-2.1484993E0,5.147613E-1,6.500059E-2,4.9976933E-1,1.0598006E0,-2.3170623E-1,2.812584E-1,3.5672167E-1,6.497301E-1,-3.8559726E-1,-8.7716535E-2,-3.6289938E-2,-2.8732976E-1,-1.949386E-1,-4.965587E-1,2.4140082E-1,-1.6469957E-1,1.1762724E0,-6.278458E-2,4.559206E-3,7.6766056E-1,2.0458947E-1,-4.4865343E-1,-2.260076E-2,-6.745378E-2,-7.916215E-2,5.7988506E-2,5.207004E-1,-1.9657517E-2,-7.877709E-2,-4.9850082E-1,4.972893E-1,-3.1826192E-1,-1.894722E-1,-6.8395617E-3,1.5902415E-2,-8.39922E-2,7.255254E-2,-8.480187E-2,-1.417994E-1,1.7897281E-1,2.2875708E-2,-7.5947404E-2,1.7609286E-1,5.4493334E-2,-4.832101E-1,1.5094806E-1,-1.3987648E0,-3.2152814E-1,2.0633262E-2,1.986829E-1,1.4885674E-1,-5.194432E-2,-2.282015E-1,2.0039742E-1,3.770904E-1,8.503556E-2,5.1299904E-2,-6.8383074E-1,4.4340707E-2,1.02143206E-1,2.4616732E-1,-2.5334093E-1],"categories":[],"categories_nodes":[],"categories_segments":[],"categories_sizes":[],"default_left":[0,0,0,0,0,0,0,0,0,0,0,0,0,0,0,0,0,0,0,0,0,0,0,0,0,0,0,0,0,0,0,0,0,0,0,0,0,0,0,0,0,0,0,0,0,0,0,0,0,0,0,0,0,0,0,0,0,0,0,0,0,0,0,0,0,0,0,0,0,0,0,0,0,0,0,0,0,0,0,0,0,0,0,0,0,0,0,0,0,0,0,0,0,0,0,0,0,0,0,0,0,0,0,0,0,0,0,0,0,0,0,0,0,0,0,0,0],"id":9,"left_children":[1,3,5,7,9,11,13,15,17,19,21,23,25,27,29,31,33,35,37,39,41,43,45,47,49,51,53,55,57,59,61,63,65,67,69,71,73,75,-1,77,-1,79,81,83,85,-1,87,-1,89,91,93,95,97,99,101,103,105,107,109,111,113,115,-1,-1,-1,-1,-1,-1,-1,-1,-1,-1,-1,-1,-1,-1,-1,-1,-1,-1,-1,-1,-1,-1,-1,-1,-1,-1,-1,-1,-1,-1,-1,-1,-1,-1,-1,-1,-1,-1,-1,-1,-1,-1,-1,-1,-1,-1,-1,-1,-1,-1,-1,-1,-1,-1,-1],"loss_changes":[1.4294601E2,8.7760315E0,2.769149E1,9.26416E0,6.456485E0,1.200762E1,1.2359367E1,7.6832047E0,2.6209438E1,5.5974455E0,1.730026E1,1.08638735E1,1.9647318E1,8.726055E0,8.511997E0,4.3581696E0,8.532391E0,2.1590809E1,6.0724382E0,4.638274E0,1.8721584E1,2.5426712E1,2.7026712E1,5.534358E0,1.503861E1,7.5692387E0,3.4104515E1,4.5776234E0,4.8444366E0,7.4888153E0,9.436233E0,3.8241386E0,4.754125E0,4.120388E0,7.752592E0,3.018089E1,1.7948942E1,6.617298E0,0E0,4.1794577E0,0E0,7.2428856E0,2.7294554E1,1.0938524E1,2.0279333E1,0E0,5.414257E-1,0E0,3.8752751E0,8.974261E0,1.0378731E1,3.5098038E0,2.7173705E0,6.690302E1,2.4779598E1,5.2175922E0,3.474579E0,6.86914E0,6.2257423E0,2.5128765E1,5.252678E0,5.7073393E0,0E0,0E0,0E0,0E0,0E0,0E0,0E0,0E0,0E0,0E0,0E0,0E0,0E0,0E0,0E0,0E0,0E0,0E0,0E0,0E0,0E0,0E0,0E0,0E0,0E0,0E0,0E0,0E0,0E0,0E0,0E0,0E0,0E0,0E0,0E0,0E0,0E0,0E0,0E0,0E0,0E0,0E0,0E0,0E0,0E0,0E0,0E0,0E0,0E0,0E0,0E0,0E0,0E0,0E0,0E0],"parents":[2147483647,0,0,1,1,2,2,3,3,4,4,5,5,6,6,7,7,8,8,9,9,10,10,11,11,12,12,13,13,14,14,15,15,16,16,17,17,18,18,19,19,20,20,21,21,22,22,23,23,24,24,25,25,26,26,27,27,28,28,29,29,30,30,31,31,32,32,33,33,34,34,35,35,36,36,37,37,39,39,41,41,42,42,43,43,44,44,46,46,48,48,49,49,50,50,51,51,52,52,53,53,54,54,55,55,56,56,57,57,58,58,59,59,60,60,61,61],"right_children":[2,4,6,8,10,12,14,16,18,20,22,24,26,28,30,32,34,36,38,40,42,44,46,48,50,52,54,56,58,60,62,64,66,68,70,72,74,76,-1,78,-1,80,82,84,86,-1,88,-1,90,92,94,96,98,100,102,104,106,108,110,112,114,116,-1,-1,-1,-1,-1,-1,-1,-1,-1,-1,-1,-1,-1,-1,-1,-1,-1,-1,-1,-1,-1,-1,-1,-1,-1,-1,-1,-1,-1,-1,-1,-1,-1,-1,-1,-1,-1,-1,-1,-1,-1,-1,-1,-1,-1,-1,-1,-1,-1,-1,-1,-1,-1,-1,-1],"split_conditions":[8.42E1,8.06E1,8.96E1,1.7E1,2E1,2E1,6.0273156E0,8.077846E0,2.4E1,1.4E1,2.8E1,1E1,1.8E1,5E0,9.86E1,1.2E1,6E0,4.2253346E0,1.1806082E1,1.7398438E1,2.5E1,2.1E1,2.1E1,1.1184709E0,9E0,1.5E1,6E0,5.8409038E0,4.4738836E0,3E0,6E0,7.34E1,1.6E1,1.5767333E1,5E0,1.9E1,6E0,7.448E1,1.2749177E-1,8E0,-4.140015E-1,6.9593744E0,1.1184709E0,9E0,9.320591E0,-1.2609048E0,4.4738836E0,4.056702E-1,4E0,1.0563336E1,1.1184709E0,2.5E1,8.474E1,2.3E1,1.9E1,2.3612163E0,1.9E1,1.8E1,9.68E1,1.287795E1,9.104E1,1.004E2,6.497301E-1,-3.8559726E-1,-8.7716535E-2,-3.6289938E-2,-2.8732976E-1,-1.949386E-1,-4.965587E-1,2.4140082E-1,-1.6469957E-1,1.1762724E0,-6.278458E-2,4.559206E-3,7.6766056E-1,2.0458947E-1,-4.4865343E-1,-2.260076E-2,-6.745378E-2,-7.916215E-2,5.7988506E-2,5.207004E-1,-1.9657517E-2,-7.877709E-2,-4.9850082E-1,4.972893E-1,-3.1826192E-1,-1.894722E-1,-6.8395617E-3,1.5902415E-2,-8.39922E-2,7.255254E-2,-8.480187E-2,-1.417994E-1,1.7897281E-1,2.2875708E-2,-7.5947404E-2,1.7609286E-1,5.4493334E-2,-4.832101E-1,1.5094806E-1,-1.3987648E0,-3.2152814E-1,2.0633262E-2,1.986829E-1,1.4885674E-1,-5.194432E-2,-2.282015E-1,2.0039742E-1,3.770904E-1,8.503556E-2,5.1299904E-2,-6.8383074E-1,4.4340707E-2,1.02143206E-1,2.4616732E-1,-2.5334093E-1],"split_indices":[3,3,3,0,0,2,4,4,2,0,2,0,0,1,3,0,1,4,4,4,2,2,0,4,2,0,1,4,4,2,1,3,0,4,0,0,1,3,0,0,0,4,4,2,4,0,4,0,0,4,4,2,3,2,0,4,0,0,3,4,3,3,0,0,0,0,0,0,0,0,0,0,0,0,0,0,0,0,0,0,0,0,0,0,0,0,0,0,0,0,0,0,0,0,0,0,0,0,0,0,0,0,0,0,0,0,0,0,0,0,0,0,0,0,0,0,0],"split_type":[0,0,0,0,0,0,0,0,0,0,0,0,0,0,0,0,0,0,0,0,0,0,0,0,0,0,0,0,0,0,0,0,0,0,0,0,0,0,0,0,0,0,0,0,0,0,0,0,0,0,0,0,0,0,0,0,0,0,0,0,0,0,0,0,0,0,0,0,0,0,0,0,0,0,0,0,0,0,0,0,0,0,0,0,0,0,0,0,0,0,0,0,0,0,0,0,0,0,0,0,0,0,0,0,0,0,0,0,0,0,0,0,0,0,0,0,0],"sum_hessian":[3.669E3,1.96E3,1.709E3,9.37E2,1.023E3,8.16E2,8.93E2,8.78E2,5.9E1,9.8E2,4.3E1,5.07E2,3.09E2,1.82E2,7.11E2,8.01E2,7.7E1,4.5E1,1.4E1,8E2,1.8E2,3.6E1,7E0,2.14E2,2.93E2,2.35E2,7.4E1,1.11E2,7.1E1,6.99E2,1.2E1,5.33E2,2.68E2,6.2E1,1.5E1,6E0,3.9E1,1.2E1,2E0,7.98E2,2E0,1.47E2,3.3E1,2.4E1,1.2E1,2E0,5E0,2E0,2.12E2,1.48E2,1.45E2,1.28E2,1.07E2,6.4E1,1E1,7.9E1,3.2E1,2.9E1,4.2E1,2.9E1,6.7E2,8E0,4E0,3E0,5.3E2,2.62E2,6E0,5.8E1,4E0,7E0,8E0,3E0,3E0,3.7E1,2E0,1E0,1.1E1,4.98E2,3E2,9.3E1,5.4E1,1.4E1,1.9E1,1.6E1,8E0,9E0,3E0,2E0,3E0,1.69E2,4.3E1,1.01E2,4.7E1,9E0,1.36E2,6.1E1,6.7E1,2E1,8.7E1,2.2E1,4.2E1,2E0,8E0,2E1,5.9E1,1.1E1,2.1E1,3E0,2.6E1,3.3E1,9E0,2.5E1,4E0,2.07E2,4.63E2,6E0,2E0],"tree_param":{"num_deleted":"0","num_feature":"5","num_nodes":"117","size_leaf_vector":"1"}},{"base_weights":[1.0512494E-3,-9.314766E-2,2.0573145E-1,-1.2822907E-1,3.0625075E-2,4.086001E-1,1.7487483E-1,-3.3435845E-1,-1.1375702E-1,2.1547645E-2,1.2779236E0,2.2134908E-1,4.9821973E-1,1.5565905E-1,4.752491E-1,-3.741868E-1,5.378494E-1,-1.0743784E-1,-5.170555E-1,3.5989687E-1,-9.860564E-3,1.6833039E-1,5.142586E-1,-3.1184694E-1,2.6735565E-1,2.852211E-1,7.414049E-1,-1.21053845E-1,1.7154457E-1,9.3161774E-1,3.4174824E-1,-2.7575347E-1,-7.6873463E-1,-4.2434996E-1,8.02327E-1,-1.2960081E-1,5.986162E-3,2.7517852E-1,-9.0680736E-1,1.5701565E-1,9.8494494E-1,1.2903133E-1,-9.854035E-2,3.3880323E-1,-6.389923E-1,-2.357361E-2,5.175538E-1,3.2134882E-1,9.687251E-1,1.8942688E-1,-3.9394543E-1,6.774095E-2,2.0920259E-1,3.5734463E-1,4.626137E-1,-5.536213E-1,4.1374224E-1,-1.0727036E-1,1.4889978E-1,5.7159425E-3,-2.5236535E-1,-2.0649205E-1,9.472161E-2,-7.34414E-2,-2.8620826E-2,-1.1323146E-2,7.6758593E-1,3.0787393E-1,-2.043416E-1,-4.109235E-1,-1.3368094E-1,-2.6740825E-1,1.2233474E-1,-1.5761431E-2,2.928382E-1,-1.2892806E-3,-1.5503114E-1,6.630283E-2,1.8020211E-1,-2.4688189E-1,-1.3072587E-2,1.1514731E-1,-2.019159E-1,2.7902818E-1,4.3505225E-2,2.8093776E-2,2.6839417E-1,3.7486202E-1,1.2087536E-2,-7.304395E-2,3.419366E-1,8.657136E-2,-3.291223E-1,1.7830017E-1,8.242168E-3,7.589702E-2,8.4175245E-4,-5.073395E-2,1.6830483E-1,-2.061867E-1,-2.2892762E-2,1.4403577E-1,-2.0267259E-1],"categories":[],"categories_nodes":[],"categories_segments":[],"categories_sizes":[],"default_left":[0,0,0,0,0,0,0,0,0,0,0,0,0,0,0,0,0,0,0,0,0,0,0,0,0,0,0,0,0,0,0,0,0,0,0,0,0,0,0,0,0,0,0,0,0,0,0,0,0,0,0,0,0,0,0,0,0,0,0,0,0,0,0,0,0,0,0,0,0,0,0,0,0,0,0,0,0,0,0,0,0,0,0,0,0,0,0,0,0,0,0,0,0,0,0,0,0,0,0,0,0,0,0],"id":10,"left_children":[1,3,5,7,9,11,13,15,17,19,21,23,25,27,29,31,33,35,37,39,41,-1,-1,-1,43,45,47,49,51,53,55,57,59,61,-1,63,65,67,69,71,-1,73,75,77,79,81,83,85,87,89,91,93,95,97,-1,99,101,-1,-1,-1,-1,-1,-1,-1,-1,-1,-1,-1,-1,-1,-1,-1,-1,-1,-1,-1,-1,-1,-1,-1,-1,-1,-1,-1,-1,-1,-1,-1,-1,-1,-1,-1,-1,-1,-1,-1,-1,-1,-1,-1,-1,-1,-1],"loss_changes":[7.077915E1,1.0920019E1,7.1711807E0,5.8058853E0,6.2676435E0,2.440487E0,5.7325783E0,4.6477966E0,4.613325E0,5.880248E0,2.8907967E-1,3.236264E0,5.0719433E0,4.1835155E0,3.3371582E0,4.56493E0,1.3469752E1,4.538208E0,8.895224E0,2.7358929E1,6.257385E0,0E0,0E0,0E0,3.4543107E0,4.0298147E0,4.1766014E0,4.4804583E0,3.488327E0,4.006139E0,3.323196E0,6.4942446E0,1.3864594E0,1.1940824E0,0E0,5.925665E0,3.3138046E1,7.8816066E0,3.4463053E0,1.21938925E1,0E0,3.0505014E1,1.2216477E1,1.3170409E0,4.0224135E-1,6.8732486E0,4.783079E0,2.2659707E0,7.7711887E0,1.0562966E1,1.3753702E1,5.0727143E0,5.936989E0,9.526706E-1,0E0,2.027582E-1,3.5781088E0,0E0,0E0,0E0,0E0,0E0,0E0,0E0,0E0,0E0,0E0,0E0,0E0,0E0,0E0,0E0,0E0,0E0,0E0,0E0,0E0,0E0,0E0,0E0,0E0,0E0,0E0,0E0,0E0,0E0,0E0,0E0,0E0,0E0,0E0,0E0,0E0,0E0,0E0,0E0,0E0,0E0,0E0,0E0,0E0,0E0,0E0],"parents":[2147483647,0,0,1,1,2,2,3,3,4,4,5,5,6,6,7,7,8,8,9,9,10,10,11,11,12,12,13,13,14,14,15,15,16,16,17,17,18,18,19,19,20,20,24,24,25,25,26,26,27,27,28,28,29,29,30,30,31,31,32,32,33,33,35,35,36,36,37,37,38,38,39,39,41,41,42,42,43,43,44,44,45,45,46,46,47,47,48,48,49,49,50,50,51,51,52,52,53,53,55,55,56,56],"right_children":[2,4,6,8,10,12,14,16,18,20,22,24,26,28,30,32,34,36,38,40,42,-1,-1,-1,44,46,48,50,52,54,56,58,60,62,-1,64,66,68,70,72,-1,74,76,78,80,82,84,86,88,90,92,94,96,98,-1,100,102,-1,-1,-1,-1,-1,-1,-1,-1,-1,-1,-1,-1,-1,-1,-1,-1,-1,-1,-1,-1,-1,-1,-1,-1,-1,-1,-1,-1,-1,-1,-1,-1,-1,-1,-1,-1,-1,-1,-1,-1,-1,-1,-1,-1,-1,-1],"split_conditions":[8.78E1,8.348E1,4.9088445E0,7.7E1,1.8641182E1,2.9204519E0,9.68E1,1.4322641E1,1.4975083E1,3E0,2E1,2E0,9.32E1,3E0,1.1E1,7.0007997E0,2.3E1,1.4E1,3E0,2.2E1,7.0007997E0,1.6833039E-1,5.142586E-1,-3.1184694E-1,1.6777064E0,3E0,4.4738836E0,2E0,5E0,6E0,2E0,1.7E1,1E0,2.1E1,8.02327E-1,1.1184709E0,3.1E1,1.5E1,2.4E1,4.9088445E0,9.8494494E-1,1.7E1,1.9E1,2.8E1,2E1,1E0,1.5E1,1.5E1,2.3E1,5E0,1.9E1,7.0007997E0,2.7E1,8E0,4.626137E-1,2E0,1.004E2,-1.0727036E-1,1.4889978E-1,5.7159425E-3,-2.5236535E-1,-2.0649205E-1,9.472161E-2,-7.34414E-2,-2.8620826E-2,-1.1323146E-2,7.6758593E-1,3.0787393E-1,-2.043416E-1,-4.109235E-1,-1.3368094E-1,-2.6740825E-1,1.2233474E-1,-1.5761431E-2,2.928382E-1,-1.2892806E-3,-1.5503114E-1,6.630283E-2,1.8020211E-1,-2.4688189E-1,-1.3072587E-2,1.1514731E-1,-2.019159E-1,2.7902818E-1,4.3505225E-2,2.8093776E-2,2.6839417E-1,3.7486202E-1,1.2087536E-2,-7.304395E-2,3.419366E-1,8.657136E-2,-3.291223E-1,1.7830017E-1,8.242168E-3,7.589702E-2,8.4175245E-4,-5.073395E-2,1.6830483E-1,-2.061867E-1,-2.2892762E-2,1.4403577E-1,-2.0267259E-1],"split_indices":[3,3,4,3,4,4,3,4,4,2,0,0,3,2,2,4,0,0,0,0,4,0,0,0,4,1,4,2,0,1,0,0,1,0,0,4,2,2,2,4,0,0,0,2,0,1,2,2,2,1,0,4,2,2,0,1,3,0,0,0,0,0,0,0,0,0,0,0,0,0,0,0,0,0,0,0,0,0,0,0,0,0,0,0,0,0,0,0,0,0,0,0,0,0,0,0,0,0,0,0,0,0,0],"split_type":[0,0,0,0,0,0,0,0,0,0,0,0,0,0,0,0,0,0,0,0,0,0,0,0,0,0,0,0,0,0,0,0,0,0,0,0,0,0,0,0,0,0,0,0,0,0,0,0,0,0,0,0,0,0,0,0,0,0,0,0,0,0,0,0,0,0,0,0,0,0,0,0,0,0,0,0,0,0,0,0,0,0,0,0,0,0,0,0,0,0,0,0,0,0,0,0,0,0,0,0,0,0,0],"sum_hessian":[3.669E3,2.513E3,1.156E3,1.958E3,5.55E2,1.51E2,1.005E3,1.27E2,1.831E3,5.52E2,3E0,5E1,1.01E2,9.46E2,5.9E1,1.22E2,5E0,1.804E3,2.7E1,4.6E1,5.06E2,2E0,1E0,1E0,4.9E1,5.5E1,4.6E1,5.1E1,8.95E2,1.2E1,4.7E1,9.9E1,2.3E1,4E0,1E0,1.509E3,2.95E2,9E0,1.8E1,4.4E1,2E0,1.97E2,3.09E2,4.6E1,3E0,2.4E1,3.1E1,1.7E1,2.9E1,2.4E1,2.7E1,2.39E2,6.56E2,7E0,5E0,3E0,4.4E1,9E1,9E0,2E0,2.1E1,3E0,1E0,3.44E2,1.165E3,2.91E2,4E0,5E0,4E0,8E0,1E1,8E0,3.6E1,1.63E2,3.4E1,2.53E2,5.6E1,3.3E1,1.3E1,2E0,1E0,1.5E1,9E0,1.4E1,1.7E1,1.3E1,4E0,2.2E1,7E0,1.7E1,7E0,1.4E1,1.3E1,1.6E1,2.23E2,5.41E2,1.15E2,2E0,5E0,2E0,1E0,4.2E1,2E0],"tree_param":{"num_deleted":"0","num_feature":"5","num_nodes":"103","size_leaf_vector":"1"}},{"base_weights":[1.6935406E-3,-8.934254E-2,1.0609124E-1,-7.9846196E-2,-2.8818882E-1,2.3508783E-4,1.5428936E-1,-9.162509E-2,4.6221238E-1,-6.534001E-1,2.1915798E-1,9.040634E-2,-8.567438E-2,1.44277E-1,7.898462E-1,-1.4463016E-1,-4.2793408E-2,1.0771532E0,-4.3312836E-1,-2.3182323E0,-5.404422E-1,7.3033607E-1,-2.294308E-1,-1.01836815E-1,1.8989466E-1,-7.405943E-2,-4.90226E-1,1.6317447E-1,-1.4302604E-1,4.279082E-1,1.6453034E0,-1.155887E-1,-3.0522943E-1,-7.0597604E-2,4.785309E-2,2.07879E0,6.27786E-1,-8.527603E-1,3.4628972E-2,1.20492555E-1,-1.1636971E0,-1.0355647E0,1.9261096E-1,6.1076814E-1,4.39898E-1,-1.1646261E0,3.2135445E-1,-2.246739E-1,9.0332717E-1,5.54827E-1,1.4656982E-1,6.0303826E-2,-1.9938515E-1,1.19436465E-1,3.7440303E-1,-7.7623564E-1,-7.2154514E-2,7.661114E-1,-1.0675405E0,-9.387589E-3,2.0722752E0,-7.2665006E-2,-2.3338605E-2,-5.374305E-2,-2.2090676E-1,-8.02219E-3,-4.9500506E-2,-3.850243E-3,1.0405077E-1,8.066483E-2,8.246929E-1,-2.5880623E-1,3.802217E-1,5.7943154E-2,-4.2237094E-1,1.3926774E-1,-2.9379198E-1,-3.7186322E-1,-3.9169313E-3,3.0496463E-1,-3.8200694E-1,2.1407142E-2,4.5830444E-1,-3.8598537E-1,-4.6602633E-2,-2.8696612E-1,2.7845192E-1,-2.3667033E-1,-1.5283167E-2,5.5990404E-1,-1.4923097E-2,9.93042E-3,2.2588332E-1,-1.3247643E-1,5.827024E-2,-1.9531174E-2,9.463474E-2,-8.0304086E-2,9.555925E-2,4.637534E-2,-1.6502457E-2,-2.1342453E-2,1.5639132E-1,-3.1158856E-1,2.0117551E-2,1.0015183E-1,3.9135727E-1,1.1376E-1,-5.941532E-1,7.035607E-1,1.8802415E-1],"categories":[],"categories_nodes":[],"categories_segments":[],"categories_sizes":[],"default_left":[0,0,0,0,0,0,0,0,0,0,0,0,0,0,0,0,0,0,0,0,0,0,0,0,0,0,0,0,0,0,0,0,0,0,0,0,0,0,0,0,0,0,0,0,0,0,0,0,0,0,0,0,0,0,0,0,0,0,0,0,0,0,0,0,0,0,0,0,0,0,0,0,0,0,0,0,0,0,0,0,0,0,0,0,0,0,0,0,0,0,0,0,0,0,0,0,0,0,0,0,0,0,0,0,0,0,0,0,0,0,0],"id":11,"left_children":[1,3,5,7,9,11,13,15,17,19,21,23,25,27,29,31,33,35,37,39,41,43,45,47,49,51,-1,53,55,57,59,61,63,65,67,69,71,73,75,-1,-1,77,79,-1,81,83,85,87,89,91,93,95,97,99,101,-1,103,105,107,-1,109,-1,-1,-1,-1,-1,-1,-1,-1,-1,-1,-1,-1,-1,-1,-1,-1,-1,-1,-1,-1,-1,-1,-1,-1,-1,-1,-1,-1,-1,-1,-1,-1,-1,-1,-1,-1,-1,-1,-1,-1,-1,-1,-1,-1,-1,-1,-1,-1,-1,-1],"loss_changes":[3.4889004E1,3.6799717E0,8.724503E0,1.2001179E1,1.6633898E1,4.1599045E0,7.3630695E0,4.740802E0,2.2489809E1,8.526043E0,8.881294E0,5.0303364E0,4.824785E0,6.310465E0,4.8691635E0,4.0644073E0,2.4128354E0,9.497431E0,3.366391E0,1.42931595E1,1.8347015E1,5.92972E0,1.1191185E1,1.131538E1,2.6539192E0,4.6259565E0,0E0,9.99777E0,1.2286596E1,7.898571E0,3.6441412E0,3.5512857E0,7.15219E0,3.0262702E0,4.08695E0,7.751669E0,1.8253424E1,5.4975624E0,4.374871E0,0E0,0E0,6.2409363E0,2.665961E1,0E0,6.3052707E0,7.851286E-1,1.1744266E1,7.8996887E0,9.271097E0,1.835609E0,4.4590974E0,4.2761636E0,5.1079655E0,5.539009E0,1.2210993E1,0E0,9.622398E0,2.3573875E0,4.713503E0,0E0,1.0824394E-1,0E0,0E0,0E0,0E0,0E0,0E0,0E0,0E0,0E0,0E0,0E0,0E0,0E0,0E0,0E0,0E0,0E0,0E0,0E0,0E0,0E0,0E0,0E0,0E0,0E0,0E0,0E0,0E0,0E0,0E0,0E0,0E0,0E0,0E0,0E0,0E0,0E0,0E0,0E0,0E0,0E0,0E0,0E0,0E0,0E0,0E0,0E0,0E0,0E0,0E0],"parents":[2147483647,0,0,1,1,2,2,3,3,4,4,5,5,6,6,7,7,8,8,9,9,10,10,11,11,12,12,13,13,14,14,15,15,16,16,17,17,18,18,19,19,20,20,21,21,22,22,23,23,24,24,25,25,27,27,28,28,29,29,30,30,31,31,32,32,33,33,34,34,35,35,36,36,37,37,38,38,41,41,42,42,44,44,45,45,46,46,47,47,48,48,49,49,50,50,51,51,52,52,53,53,54,54,56,56,57,57,58,58,60,60],"right_children":[2,4,6,8,10,12,14,16,18,20,22,24,26,28,30,32,34,36,38,40,42,44,46,48,50,52,-1,54,56,58,60,62,64,66,68,70,72,74,76,-1,-1,78,80,-1,82,84,86,88,90,92,94,96,98,100,102,-1,104,106,108,-1,110,-1,-1,-1,-1,-1,-1,-1,-1,-1,-1,-1,-1,-1,-1,-1,-1,-1,-1,-1,-1,-1,-1,-1,-1,-1,-1,-1,-1,-1,-1,-1,-1,-1,-1,-1,-1,-1,-1,-1,-1,-1,-1,-1,-1,-1,-1,-1,-1,-1,-1],"split_conditions":[8.42E1,1.9E1,1.5E1,1.7E1,8.160695E0,2E0,9.86E1,8.06E1,8.160695E0,3E0,3E0,1.05012E1,9.32E1,1.5767333E1,9.320591E0,6.9593744E0,1.2E1,4.2253346E0,3E0,2.1E1,2.2E1,9.320591E0,7.718E1,6E0,5E0,1.4E1,-4.90226E-1,1.2738141E1,1.6093554E1,8.160695E0,1E1,7E0,1.3E1,8E0,2.5E1,1.1184709E0,6.9593744E0,2E0,8.15E1,1.20492555E-1,-1.1636971E0,6E0,3E0,6.1076814E-1,2.3E1,1.1806082E1,2.1E1,6E0,6E0,1E0,8E0,1.2E1,1.4322641E1,2.2E1,1E1,-7.7623564E-1,7E0,1.004E2,2.1E1,-9.387589E-3,1.4E1,-7.2665006E-2,-2.3338605E-2,-5.374305E-2,-2.2090676E-1,-8.02219E-3,-4.9500506E-2,-3.850243E-3,1.0405077E-1,8.066483E-2,8.246929E-1,-2.5880623E-1,3.802217E-1,5.7943154E-2,-4.2237094E-1,1.3926774E-1,-2.9379198E-1,-3.7186322E-1,-3.9169313E-3,3.0496463E-1,-3.8200694E-1,2.1407142E-2,4.5830444E-1,-3.8598537E-1,-4.6602633E-2,-2.8696612E-1,2.7845192E-1,-2.3667033E-1,-1.5283167E-2,5.5990404E-1,-1.4923097E-2,9.93042E-3,2.2588332E-1,-1.3247643E-1,5.827024E-2,-1.9531174E-2,9.463474E-2,-8.0304086E-2,9.555925E-2,4.637534E-2,-1.6502457E-2,-2.1342453E-2,1.5639132E-1,-3.1158856E-1,2.0117551E-2,1.0015183E-1,3.9135727E-1,1.1376E-1,-5.941532E-1,7.035607E-1,1.8802415E-1],"split_indices":[3,0,0,0,4,0,3,3,4,2,1,4,3,4,4,4,0,4,1,0,0,4,3,1,2,2,0,4,4,4,2,2,0,0,2,4,4,1,3,0,0,1,1,0,0,4,0,2,2,1,2,2,4,0,2,0,2,3,0,0,2,0,0,0,0,0,0,0,0,0,0,0,0,0,0,0,0,0,0,0,0,0,0,0,0,0,0,0,0,0,0,0,0,0,0,0,0,0,0,0,0,0,0,0,0,0,0,0,0,0,0],"split_type":[0,0,0,0,0,0,0,0,0,0,0,0,0,0,0,0,0,0,0,0,0,0,0,0,0,0,0,0,0,0,0,0,0,0,0,0,0,0,0,0,0,0,0,0,0,0,0,0,0,0,0,0,0,0,0,0,0,0,0,0,0,0,0,0,0,0,0,0,0,0,0,0,0,0,0,0,0,0,0,0,0,0,0,0,0,0,0,0,0,0,0,0,0,0,0,0,0,0,0,0,0,0,0,0,0,0,0,0,0,0,0],"sum_hessian":[3.669E3,1.96E3,1.709E3,1.872E3,8.8E1,5.35E2,1.174E3,1.833E3,3.9E1,5.1E1,3.7E1,2.61E2,2.74E2,1.157E3,1.7E1,8.78E2,9.55E2,2.3E1,1.6E1,2E0,4.9E1,1.7E1,2E1,8.9E1,1.72E2,2.73E2,1E0,1.086E3,7.1E1,1.3E1,4E0,7.45E2,1.33E2,7.31E2,2.24E2,6E0,1.7E1,8E0,8E0,1E0,1E0,2.9E1,2E1,2E0,1.5E1,7E0,1.3E1,8E1,9E0,1.7E1,1.55E2,1.32E2,1.41E2,9.01E2,1.85E2,1E0,7E1,1.1E1,2E0,1E0,3E0,1.7E2,5.75E2,1.04E2,2.9E1,5E2,2.31E2,1.87E2,3.7E1,2E0,4E0,5E0,1.2E1,3E0,5E0,6E0,2E0,2.4E1,5E0,1.3E1,7E0,1.2E1,3E0,6E0,1E0,4E0,9E0,1.8E1,6.2E1,4E0,5E0,5E0,1.2E1,1.1E1,1.44E2,8.9E1,4.3E1,1.25E2,1.6E1,7.5E2,1.51E2,4.6E1,1.39E2,8E0,6.2E1,7E0,4E0,1E0,1E0,2E0,1E0],"tree_param":{"num_deleted":"0","num_feature":"5","num_nodes":"111","size_leaf_vector":"1"}},{"base_weights":[1.0145266E-3,-3.7968688E-2,1.2210555E-1,-6.2027507E-2,3.1632666E-2,2.5586283E-1,8.755542E-2,-4.6133783E-2,-1.9709465E-1,1.0964637E-1,-1.4404197E-1,2.8784838E-1,-4.7980213E-1,7.361819E-2,5.66103E-1,-4.221251E-2,-5.224996E-1,-8.629361E-2,-8.1227946E-1,5.3558245E-2,5.9689283E-1,-4.418285E-1,-2.9610585E-2,1.8175541E-1,4.5773464E-1,-8.271917E-2,-3.3421022E-1,1.4624944E-1,-1.817958E-2,7.804216E-1,-5.258927E-1,-4.889069E-2,5.983027E-1,-2.3915024E0,1.4404297E-1,8.3688535E-2,-4.33203E-1,-5.5730194E-1,-3.1762874E0,7.6746327E-1,2.1666551E-2,7.395421E-1,-4.054086E-1,-1.2921335E0,7.096237E-2,5.832838E-2,-3.831892E-1,8.787358E-2,4.2917785E-1,5.123924E-1,-5.312233E-1,4.345169E-1,-2.2343826E-1,-3.6208764E-2,3.3957598E-1,-1.00751646E-1,3.6198243E-1,2.3243931E-1,1.0154566E0,-3.5785597E-2,-7.888227E-3,3.1021285E-1,-2.4857347E-1,-9.298157E-1,-4.017792E-2,-1.8047181E-1,1.0599702E-1,-1.201803E-1,7.6390006E-2,-1.7974018E-1,3.4678195E-2,-3.3697033E-1,-5.6963198E-2,-6.2477876E-2,-1.3668514E0,-3.9708998E-2,3.9101774E-1,-2.8933186E-2,3.6406852E-2,3.2095808E-1,1.29748E-1,-1.808249E-1,1.7588807E-2,-1.6420792E-1,-8.7488383E-1,2.3975602E-1,-5.224335E-2,-1.7738016E-2,1.2486356E-1,-5.244873E-1,-5.4505765E-2,1.0761268E-1,-5.7587055E-3,-1.1751618E-1,1.7116083E-1,1.0455312E-1,2.4282502E-1,-3.873196E-1,4.5723725E-2,-4.2649843E-2,2.0224E-1,3.902967E-2,-1.6540888E-1,1.2892309E-1,-1.5920704E-2,-4.46908E-2,1.6110992E-1,1.8424743E-1,7.826827E-2,1.9536497E-1,-7.3334314E-2,1.7817956E-1,3.6140043E-1],"categories":[],"categories_nodes":[],"categories_segments":[],"categories_sizes":[],"default_left":[0,0,0,0,0,0,0,0,0,0,0,0,0,0,0,0,0,0,0,0,0,0,0,0,0,0,0,0,0,0,0,0,0,0,0,0,0,0,0,0,0,0,0,0,0,0,0,0,0,0,0,0,0,0,0,0,0,0,0,0,0,0,0,0,0,0,0,0,0,0,0,0,0,0,0,0,0,0,0,0,0,0,0,0,0,0,0,0,0,0,0,0,0,0,0,0,0,0,0,0,0,0,0,0,0,0,0,0,0,0,0,0,0],"id":12,"left_children":[1,3,5,7,9,11,13,15,17,19,21,23,25,27,29,31,33,35,37,39,41,43,45,47,49,51,-1,53,55,57,-1,59,61,63,65,67,69,71,73,75,77,79,81,83,85,87,89,91,93,95,97,99,-1,101,103,105,107,109,111,-1,-1,-1,-1,-1,-1,-1,-1,-1,-1,-1,-1,-1,-1,-1,-1,-1,-1,-1,-1,-1,-1,-1,-1,-1,-1,-1,-1,-1,-1,-1,-1,-1,-1,-1,-1,-1,-1,-1,-1,-1,-1,-1,-1,-1,-1,-1,-1,-1,-1,-1,-1,-1,-1],"loss_changes":[1.7328936E1,4.652122E0,4.109067E0,4.4217367E0,9.801184E0,4.4442205E0,4.7071023E0,3.429938E0,1.4721302E1,1.349576E1,7.4836636E0,3.0889826E0,1.9225894E0,4.6231575E0,1.1308495E1,7.8741446E0,1.9031027E1,1.0945409E1,1.812122E1,1.0114973E1,7.591673E0,2.668944E1,4.997285E0,2.5174189E0,3.8938293E0,2.3783205E0,0E0,1.3663338E1,9.673435E0,2.211072E0,0E0,2.8855371E0,1.2670021E1,5.977312E0,2.0850625E0,1.0450354E1,5.6240625E0,6.232787E0,1.1337734E1,9.335142E0,5.0393696E0,4.101364E0,6.76355E-1,2.622504E1,7.1003923E0,5.447155E0,8.484682E0,2.355735E0,3.7047129E0,2.8332348E0,2.2745945E0,6.4856976E-1,0E0,1.7206549E1,6.678734E0,7.860384E0,1.2418289E0,1.5571542E0,3.213539E-1,0E0,0E0,0E0,0E0,0E0,0E0,0E0,0E0,0E0,0E0,0E0,0E0,0E0,0E0,0E0,0E0,0E0,0E0,0E0,0E0,0E0,0E0,0E0,0E0,0E0,0E0,0E0,0E0,0E0,0E0,0E0,0E0,0E0,0E0,0E0,0E0,0E0,0E0,0E0,0E0,0E0,0E0,0E0,0E0,0E0,0E0,0E0,0E0,0E0,0E0,0E0,0E0,0E0,0E0],"parents":[2147483647,0,0,1,1,2,2,3,3,4,4,5,5,6,6,7,7,8,8,9,9,10,10,11,11,12,12,13,13,14,14,15,15,16,16,17,17,18,18,19,19,20,20,21,21,22,22,23,23,24,24,25,25,27,27,28,28,29,29,31,31,32,32,33,33,34,34,35,35,36,36,37,37,38,38,39,39,40,40,41,41,42,42,43,43,44,44,45,45,46,46,47,47,48,48,49,49,50,50,51,51,53,53,54,54,55,55,56,56,57,57,58,58],"right_children":[2,4,6,8,10,12,14,16,18,20,22,24,26,28,30,32,34,36,38,40,42,44,46,48,50,52,-1,54,56,58,-1,60,62,64,66,68,70,72,74,76,78,80,82,84,86,88,90,92,94,96,98,100,-1,102,104,106,108,110,112,-1,-1,-1,-1,-1,-1,-1,-1,-1,-1,-1,-1,-1,-1,-1,-1,-1,-1,-1,-1,-1,-1,-1,-1,-1,-1,-1,-1,-1,-1,-1,-1,-1,-1,-1,-1,-1,-1,-1,-1,-1,-1,-1,-1,-1,-1,-1,-1,-1,-1,-1,-1,-1,-1],"split_conditions":[8.96E1,8.947767E0,6.0273156E0,7.5807476E0,2.1E1,3.1E1,3.1E1,2.3E1,1.8E1,2.1E1,2.4E1,5E0,9.5E1,4E0,1.7212025E1,2.2E1,4E0,2E1,2.8E1,1E0,1.6155691E1,3E0,1.3856612E1,2.1E1,2.3E1,6E0,-3.3421022E-1,1.7E1,1.4322641E1,2E1,-5.258927E-1,8E0,5E0,8.258E1,1.1184709E0,7E0,8.474E1,1.6E1,2E0,5E0,1E1,8.474E1,1.7398438E1,2E0,4E0,1.7E1,1E0,9.14E1,9.104E1,5.8409038E0,6E0,3E0,-2.2343826E-1,2.2E1,1.4912946E1,9.68E1,1.1E1,5E0,9.631277E0,-3.5785597E-2,-7.888227E-3,3.1021285E-1,-2.4857347E-1,-9.298157E-1,-4.017792E-2,-1.8047181E-1,1.0599702E-1,-1.201803E-1,7.6390006E-2,-1.7974018E-1,3.4678195E-2,-3.3697033E-1,-5.6963198E-2,-6.2477876E-2,-1.3668514E0,-3.9708998E-2,3.9101774E-1,-2.8933186E-2,3.6406852E-2,3.2095808E-1,1.29748E-1,-1.808249E-1,1.7588807E-2,-1.6420792E-1,-8.7488383E-1,2.3975602E-1,-5.224335E-2,-1.7738016E-2,1.2486356E-1,-5.244873E-1,-5.4505765E-2,1.0761268E-1,-5.7587055E-3,-1.1751618E-1,1.7116083E-1,1.0455312E-1,2.4282502E-1,-3.873196E-1,4.5723725E-2,-4.2649843E-2,2.0224E-1,3.902967E-2,-1.6540888E-1,1.2892309E-1,-1.5920704E-2,-4.46908E-2,1.6110992E-1,1.8424743E-1,7.826827E-2,1.9536497E-1,-7.3334314E-2,1.7817956E-1,3.6140043E-1],"split_indices":[3,4,4,4,2,2,2,0,0,0,2,1,3,1,4,0,2,2,2,0,4,1,4,0,0,1,0,2,4,0,0,2,1,3,4,2,3,2,1,2,2,3,4,1,1,0,0,3,3,4,2,1,0,0,4,3,2,1,4,0,0,0,0,0,0,0,0,0,0,0,0,0,0,0,0,0,0,0,0,0,0,0,0,0,0,0,0,0,0,0,0,0,0,0,0,0,0,0,0,0,0,0,0,0,0,0,0,0,0,0,0,0,0],"split_type":[0,0,0,0,0,0,0,0,0,0,0,0,0,0,0,0,0,0,0,0,0,0,0,0,0,0,0,0,0,0,0,0,0,0,0,0,0,0,0,0,0,0,0,0,0,0,0,0,0,0,0,0,0,0,0,0,0,0,0,0,0,0,0,0,0,0,0,0,0,0,0,0,0,0,0,0,0,0,0,0,0,0,0,0,0,0,0,0,0,0,0,0,0,0,0,0,0,0,0,0,0,0,0,0,0,0,0,0,0,0,0,0,0],"sum_hessian":[3.669E3,2.776E3,8.93E2,2.063E3,7.13E2,1.82E2,7.11E2,1.847E3,2.16E2,4.94E2,2.19E2,1.75E2,7E0,6.92E2,1.9E1,1.833E3,1.4E1,1.84E2,3.2E1,4.44E2,5E1,6E1,1.59E2,1.09E2,6.6E1,5E0,2E0,3.86E2,3.06E2,1.8E1,1E0,1.815E3,1.8E1,3E0,1.1E1,1.24E2,6E1,3E1,2E0,1.8E1,4.26E2,4.4E1,6E0,2.2E1,3.8E1,1.28E2,3.1E1,8E1,2.9E1,6.3E1,3E0,3E0,2E0,1.99E2,1.87E2,2.52E2,5.4E1,6E0,1.2E1,4.4E2,1.375E3,1.4E1,4E0,2E0,1E0,2E0,9E0,3.2E1,9.2E1,4.6E1,1.4E1,1.1E1,1.9E1,1E0,1E0,7E0,1.1E1,1.95E2,2.31E2,2E1,2.4E1,4E0,2E0,1.6E1,6E0,9E0,2.9E1,9.7E1,3.1E1,3E0,2.8E1,2.2E1,5.8E1,4E0,2.5E1,4.2E1,2.1E1,1E0,2E0,1E0,2E0,1.51E2,4.8E1,1.52E2,3.5E1,2.35E2,1.7E1,1.4E1,4E1,3E0,3E0,5E0,7E0],"tree_param":{"num_deleted":"0","num_feature":"5","num_nodes":"113","size_leaf_vector":"1"}},{"base_weights":[-2.305969E-4,-5.0014827E-2,5.686128E-2,-4.148807E-2,-2.6388124E-1,1.113899E-1,1.5047969E-2,-5.0094746E-2,2.5158846E-1,-3.0582359E-2,-8.623363E-1,2.4593059E-2,2.2027288E-1,-3.5533497E-1,5.6184392E-2,-3.7102395E-1,-4.5274403E-2,4.0951696E-1,-8.6729103E-1,-2.5114202E-1,2.2252426E0,-1.7017456E0,-9.096718E-2,-1.0149702E-1,1.548892E-1,2.879661E-1,-2.0244764E-1,-1.968444E0,-1.8821906E-1,2.9196006E-1,9.984518E-3,-9.046955E-1,-1.3900414E-1,5.997553E-2,-5.6661636E-2,1.591252E0,2.0281073E-1,-3.24061E-1,-2.2334035E-1,-4.714527E-1,2.6025343E-1,-3.177567E-2,8.5035384E-1,-9.501234E-1,-6.213063E-1,-2.0413841E-1,6.119372E-1,-1.2347781E-1,4.3909913E-1,2.3536578E-1,-2.2720613E-1,4.1668946E-1,-1.9954592E-1,-1.4542232E0,3.906486E-1,-1.3853227E0,-5.518243E-1,-4.5904332E-1,7.105949E-1,1.1563944E0,2.0394781E-1,-5.7656895E-2,1.5034112E-1,-6.589508E-3,-3.0829862E-1,3.3621665E-2,-3.513983E-1,-8.6904345E-3,1.22742854E-1,-4.39149E-2,-1.0728867E-2,7.7416366E-1,6.124363E-2,-2.0889588E-1,1.3045526E-1,-2.2403756E-1,1.235344E-1,1.5503784E-2,-2.677627E-1,-1.1103236E-1,2.8106347E-1,-3.0667374E-1,7.62085E-2,2.6420608E-1,-1.09771736E-1,3.6593746E-2,-6.489801E-2,3.4929793E-2,2.0145702E-1,-1.22487344E-1,1.0842438E-1,6.1616827E-2,1.9686575E-1,1.329982E-2,-3.8698345E-1,-8.938027E-1,2.1431711E-1,1.6426899E-1,-2.1358743E-2,-3.7300014E-1,8.3292395E-2,-8.3922654E-1,-1.0424653E-1,8.553887E-3,2.4680737E-1,1.4770596E-1,4.9657091E-1,2.1541595E-1,3.629528E-2,1.2277985E-3,-1.20805696E-1,8.9748524E-2,9.180554E-3],"categories":[],"categories_nodes":[],"categories_segments":[],"categories_sizes":[],"default_left":[0,0,0,0,0,0,0,0,0,0,0,0,0,0,0,0,0,0,0,0,0,0,0,0,0,0,0,0,0,0,0,0,0,0,0,0,0,0,0,0,0,0,0,0,0,0,0,0,0,0,0,0,0,0,0,0,0,0,0,0,0,0,0,0,0,0,0,0,0,0,0,0,0,0,0,0,0,0,0,0,0,0,0,0,0,0,0,0,0,0,0,0,0,0,0,0,0,0,0,0,0,0,0,0,0,0,0,0,0,0,0,0,0],"id":13,"left_children":[1,3,5,7,9,11,13,15,17,19,21,23,25,27,29,31,33,35,37,39,41,43,45,47,49,51,53,55,57,59,61,63,65,67,69,71,73,-1,75,77,79,-1,-1,-1,81,-1,83,85,-1,87,89,91,93,95,97,-1,99,101,103,105,107,109,111,-1,-1,-1,-1,-1,-1,-1,-1,-1,-1,-1,-1,-1,-1,-1,-1,-1,-1,-1,-1,-1,-1,-1,-1,-1,-1,-1,-1,-1,-1,-1,-1,-1,-1,-1,-1,-1,-1,-1,-1,-1,-1,-1,-1,-1,-1,-1,-1,-1,-1],"loss_changes":[1.0433993E1,3.565106E0,3.897162E0,4.772401E0,1.0445045E1,7.007003E0,1.478387E1,2.8203812E0,9.89713E0,2.792377E1,1.3442579E1,6.8173475E0,9.472735E0,2.5778389E1,9.506504E0,3.217448E0,2.1702964E0,1.1402332E1,7.1848154E-1,5.868658E0,7.401762E0,1.3864304E1,5.3886957E0,7.439863E0,6.326421E0,1.7905336E1,3.4719566E1,3.1229252E1,2.199063E1,1.0643713E1,6.948723E0,8.4579754E-1,5.315113E0,5.5088015E0,3.0548692E0,9.078981E0,9.0654335E0,0E0,1.3048811E0,7.9764004E0,7.171035E0,0E0,0E0,0E0,2.7163727E0,0E0,1.8990188E0,4.7895803E0,0E0,8.688451E0,3.984816E0,1.1253063E1,1.6012688E1,5.173932E1,2.358029E0,0E0,4.3602843E0,1.7027102E1,1.5821781E0,3.4913101E0,5.50054E0,1.0526502E1,4.231927E0,0E0,0E0,0E0,0E0,0E0,0E0,0E0,0E0,0E0,0E0,0E0,0E0,0E0,0E0,0E0,0E0,0E0,0E0,0E0,0E0,0E0,0E0,0E0,0E0,0E0,0E0,0E0,0E0,0E0,0E0,0E0,0E0,0E0,0E0,0E0,0E0,0E0,0E0,0E0,0E0,0E0,0E0,0E0,0E0,0E0,0E0,0E0,0E0,0E0,0E0],"parents":[2147483647,0,0,1,1,2,2,3,3,4,4,5,5,6,6,7,7,8,8,9,9,10,10,11,11,12,12,13,13,14,14,15,15,16,16,17,17,18,18,19,19,20,20,21,21,22,22,23,23,24,24,25,25,26,26,27,27,28,28,29,29,30,30,31,31,32,32,33,33,34,34,35,35,36,36,38,38,39,39,40,40,44,44,46,46,47,47,49,49,50,50,51,51,52,52,53,53,54,54,56,56,57,57,58,58,59,59,60,60,61,61,62,62],"right_children":[2,4,6,8,10,12,14,16,18,20,22,24,26,28,30,32,34,36,38,40,42,44,46,48,50,52,54,56,58,60,62,64,66,68,70,72,74,-1,76,78,80,-1,-1,-1,82,-1,84,86,-1,88,90,92,94,96,98,-1,100,102,104,106,108,110,112,-1,-1,-1,-1,-1,-1,-1,-1,-1,-1,-1,-1,-1,-1,-1,-1,-1,-1,-1,-1,-1,-1,-1,-1,-1,-1,-1,-1,-1,-1,-1,-1,-1,-1,-1,-1,-1,-1,-1,-1,-1,-1,-1,-1,-1,-1,-1,-1,-1,-1],"split_conditions":[8.42E1,2E1,1.4E1,1.7E1,2.3E1,9E0,1.6E1,7.448E1,2.7E1,2.2E1,6.0273156E0,1.8E1,2.2E1,1E0,4.9088445E0,4E0,4E0,4.2253346E0,2.9E1,1.6E1,7.538E1,2.1E1,2.6E1,9.5E1,2.3E1,1.3856612E1,2E0,9.104E1,5E0,1.7E1,1.1806082E1,1E0,3E0,1.3E1,9E0,7.916E1,6.9593744E0,-3.24061E-1,1.9E1,6E0,2E0,-3.177567E-2,8.5035384E-1,-9.501234E-1,6E0,-2.0413841E-1,5E0,3E0,4.3909913E-1,2.2E1,1.4322641E1,1.7E1,2E1,9.68E1,9.68E1,-1.3853227E0,3E0,1.1184709E0,4E0,1.1184709E0,1E0,6E0,2.1E1,-6.589508E-3,-3.0829862E-1,3.3621665E-2,-3.513983E-1,-8.6904345E-3,1.22742854E-1,-4.39149E-2,-1.0728867E-2,7.7416366E-1,6.124363E-2,-2.0889588E-1,1.3045526E-1,-2.2403756E-1,1.235344E-1,1.5503784E-2,-2.677627E-1,-1.1103236E-1,2.8106347E-1,-3.0667374E-1,7.62085E-2,2.6420608E-1,-1.09771736E-1,3.6593746E-2,-6.489801E-2,3.4929793E-2,2.0145702E-1,-1.22487344E-1,1.0842438E-1,6.1616827E-2,1.9686575E-1,1.329982E-2,-3.8698345E-1,-8.938027E-1,2.1431711E-1,1.6426899E-1,-2.1358743E-2,-3.7300014E-1,8.3292395E-2,-8.3922654E-1,-1.0424653E-1,8.553887E-3,2.4680737E-1,1.4770596E-1,4.9657091E-1,2.1541595E-1,3.629528E-2,1.2277985E-3,-1.20805696E-1,8.9748524E-2,9.180554E-3],"split_indices":[3,0,2,0,2,2,2,3,2,2,4,0,0,0,4,0,2,4,2,2,3,0,2,3,0,4,1,3,1,2,4,0,1,0,2,3,4,0,0,2,1,0,0,0,1,0,1,2,0,0,4,0,0,3,3,0,1,4,0,4,1,1,2,0,0,0,0,0,0,0,0,0,0,0,0,0,0,0,0,0,0,0,0,0,0,0,0,0,0,0,0,0,0,0,0,0,0,0,0,0,0,0,0,0,0,0,0,0,0,0,0,0,0],"split_type":[0,0,0,0,0,0,0,0,0,0,0,0,0,0,0,0,0,0,0,0,0,0,0,0,0,0,0,0,0,0,0,0,0,0,0,0,0,0,0,0,0,0,0,0,0,0,0,0,0,0,0,0,0,0,0,0,0,0,0,0,0,0,0,0,0,0,0,0,0,0,0,0,0,0,0,0,0,0,0,0,0,0,0,0,0,0,0,0,0,0,0,0,0,0,0,0,0,0,0,0,0,0,0,0,0,0,0,0,0,0,0,0,0],"sum_hessian":[3.669E3,1.96E3,1.709E3,1.886E3,7.4E1,7.41E2,9.68E2,1.833E3,5.3E1,5.4E1,2E1,4.13E2,3.28E2,9.6E1,8.72E2,2.6E1,1.807E3,4.7E1,6E0,5E1,4E0,9E0,1.1E1,2.1E2,2.03E2,2.83E2,4.5E1,8E0,8.8E1,1.42E2,7.3E2,7E0,1.9E1,1.76E2,1.631E3,6E0,4.1E1,4E0,2E0,3.5E1,1.5E1,1E0,3E0,3E0,6E0,6E0,5E0,2.08E2,2E0,1.68E2,3.5E1,2.24E2,5.9E1,1.4E1,3.1E1,2E0,6E0,6.8E1,2E1,1.2E1,1.3E2,4.93E2,2.37E2,1E0,6E0,1.6E1,3E0,1.41E2,3.5E1,3.07E2,1.324E3,3E0,3E0,8E0,3.3E1,1E0,1E0,1.6E1,1.9E1,8E0,7E0,4E0,2E0,4E0,1E0,5.7E1,1.51E2,1.33E2,3.5E1,2.7E1,8E0,1.2E2,1.04E2,4.9E1,1E1,8E0,6E0,2.3E1,8E0,3E0,3E0,2E0,6.6E1,3E0,1.7E1,6E0,6E0,1.7E1,1.13E2,4.19E2,7.4E1,1.05E2,1.32E2],"tree_param":{"num_deleted":"0","num_feature":"5","num_nodes":"113","size_leaf_vector":"1"}},{"base_weights":[-7.7279116E-4,-3.939432E-2,3.782812E-2,-2.4202064E-2,-2.039026E-1,1.0086688E-1,-8.210356E-3,-2.0557096E-2,-3.5981452E-1,-7.1614355E-2,-5.1581144E-1,7.8230955E-2,3.64536E-1,-2.1063139E-1,1.779936E-2,7.458522E-2,-4.0692363E-2,7.719742E-1,-7.3832375E-1,6.71736E-2,-2.590785E-1,-1.3570938E0,-2.7449694E-1,1.0077436E-1,-1.7412916E-1,5.320061E-1,-3.636341E-1,-3.6129636E-1,3.8237396E-1,9.95999E-3,7.474327E-1,-1.5369762E-2,3.0019975E-1,-3.877855E-2,-4.0025368E-1,3.512787E-1,1.1569468E-1,6.299676E-2,-1.8172506E0,-2.2952312E-1,1.793729E-1,-2.163442E-2,-3.92909E-1,-1.6698674E0,-4.704666E-1,-1.0847582E-1,-7.1190643E-1,9.3538314E-2,1.0256469E0,-4.3465635E-1,4.950943E-1,3.3872357E-1,8.872766E-1,-1.6449432E0,4.8263836E-1,-7.876387E-1,-1.768728E-1,2.1639147E-1,3.5990524E-1,1.9860603E-2,-9.058525E-1,3.55421E-1,2.5844064E-1,5.8742795E-2,-4.1254733E-2,1.7208833E-1,1.8335668E-3,-1.0273788E-2,-1.6499883E-1,1.0252763E-2,4.1809846E-2,8.631298E-2,-1.4469986E-1,-9.2886204E-1,-1.2111626E-1,-1.3786335E-1,5.9276473E-2,7.540923E-2,-1.9721204E-1,-4.9691305E-2,8.819351E-2,-3.5471126E-2,-1.7879914E-1,-1.9655992E-1,-5.8340836E-1,-2.4300995E-1,8.223496E-2,-7.4348453E-4,-8.161947E-2,-1.1510554E-1,-4.0495837E-1,3.2635525E-2,-7.919694E-2,3.5846674E-1,5.230179E-2,-5.177361E-1,-6.5806605E-2,6.1714405E-1,4.490326E-2,1.6391793E-1,-4.3549974E-2,3.301158E-1,-2.412758E-2,-6.0941316E-2,-7.6153034E-1,2.0372577E-1,-1.3387413E-1,-1.589873E-1,-4.5653555E-1,7.773086E-2,-2.1589582E-1,1.029525E-1,-1.3197842E-1,-3.8782235E-2,1.5096576E-2,-7.614928E-2,-7.0278776E-1,2.1491088E-2,1.7886887E-1],"categories":[],"categories_nodes":[],"categories_segments":[],"categories_sizes":[],"default_left":[0,0,0,0,0,0,0,0,0,0,0,0,0,0,0,0,0,0,0,0,0,0,0,0,0,0,0,0,0,0,0,0,0,0,0,0,0,0,0,0,0,0,0,0,0,0,0,0,0,0,0,0,0,0,0,0,0,0,0,0,0,0,0,0,0,0,0,0,0,0,0,0,0,0,0,0,0,0,0,0,0,0,0,0,0,0,0,0,0,0,0,0,0,0,0,0,0,0,0,0,0,0,0,0,0,0,0,0,0,0,0,0,0,0,0,0,0,0,0],"id":14,"left_children":[1,3,5,7,9,11,13,15,17,19,21,23,25,27,29,31,33,35,37,39,41,43,45,47,49,51,53,55,57,59,61,63,65,67,-1,-1,69,71,73,75,77,79,81,83,85,87,89,91,93,95,97,99,101,103,105,107,109,111,-1,113,115,-1,117,-1,-1,-1,-1,-1,-1,-1,-1,-1,-1,-1,-1,-1,-1,-1,-1,-1,-1,-1,-1,-1,-1,-1,-1,-1,-1,-1,-1,-1,-1,-1,-1,-1,-1,-1,-1,-1,-1,-1,-1,-1,-1,-1,-1,-1,-1,-1,-1,-1,-1,-1,-1,-1,-1,-1,-1],"loss_changes":[5.4728227E0,4.581192E0,5.3292828E0,2.048965E0,6.35865E0,4.5969863E0,5.595087E0,3.1907866E0,8.281031E0,2.879357E0,8.966108E0,4.0852222E0,7.632206E0,1.0948912E1,5.3806696E0,5.910504E0,3.3495877E0,1.1736588E0,1.2218408E1,2.1716774E0,1.4850309E0,1.9875183E0,2.6096864E0,4.3009825E0,1.0501901E1,3.1328354E0,1.3805952E1,7.487561E0,3.131878E0,8.477598E0,1.8321972E0,5.4180145E0,6.670677E0,3.1625977E0,0E0,0E0,1.0260493E-3,1.2416565E0,9.59705E0,1.8592058E0,2.996443E0,8.6678076E-1,1.6030087E0,6.77845E-1,1.2333854E0,4.848469E-1,1.5759821E0,3.588316E0,5.120692E-1,1.1574654E1,8.864595E0,3.4959514E0,3.594347E0,5.9255486E0,1.7628582E0,4.679613E0,1.6514542E1,1.981603E0,0E0,4.204089E0,8.773444E0,0E0,3.3588916E-1,0E0,0E0,0E0,0E0,0E0,0E0,0E0,0E0,0E0,0E0,0E0,0E0,0E0,0E0,0E0,0E0,0E0,0E0,0E0,0E0,0E0,0E0,0E0,0E0,0E0,0E0,0E0,0E0,0E0,0E0,0E0,0E0,0E0,0E0,0E0,0E0,0E0,0E0,0E0,0E0,0E0,0E0,0E0,0E0,0E0,0E0,0E0,0E0,0E0,0E0,0E0,0E0,0E0,0E0,0E0,0E0],"parents":[2147483647,0,0,1,1,2,2,3,3,4,4,5,5,6,6,7,7,8,8,9,9,10,10,11,11,12,12,13,13,14,14,15,15,16,16,17,17,18,18,19,19,20,20,21,21,22,22,23,23,24,24,25,25,26,26,27,27,28,28,29,29,30,30,31,31,32,32,33,33,36,36,37,37,38,38,39,39,40,40,41,41,42,42,43,43,44,44,45,45,46,46,47,47,48,48,49,49,50,50,51,51,52,52,53,53,54,54,55,55,56,56,57,57,59,59,60,60,62,62],"right_children":[2,4,6,8,10,12,14,16,18,20,22,24,26,28,30,32,34,36,38,40,42,44,46,48,50,52,54,56,58,60,62,64,66,68,-1,-1,70,72,74,76,78,80,82,84,86,88,90,92,94,96,98,100,102,104,106,108,110,112,-1,114,116,-1,118,-1,-1,-1,-1,-1,-1,-1,-1,-1,-1,-1,-1,-1,-1,-1,-1,-1,-1,-1,-1,-1,-1,-1,-1,-1,-1,-1,-1,-1,-1,-1,-1,-1,-1,-1,-1,-1,-1,-1,-1,-1,-1,-1,-1,-1,-1,-1,-1,-1,-1,-1,-1,-1,-1,-1,-1],"split_conditions":[1.2E1,1.1E1,1.4E1,9.5E1,5E0,1.3E1,1.6E1,2E0,1.1E1,1.9E1,7E0,2.3E1,1.287795E1,5E0,1.8641182E1,5E0,9.32E1,5E0,2E0,6E0,2E0,7.916E1,7.916E1,1.004E2,1.4322641E1,9.320591E0,1.4322641E1,5.8409038E0,1.1806082E1,1.7212025E1,2.0815987E1,2E0,1.3856612E1,1.7212025E1,-4.0025368E-1,3.512787E-1,6E0,1E0,1.3E1,4.9088445E0,8.160695E0,7.916E1,2.3612163E0,7.718E1,6E0,2.4E1,2.3E1,1.4975083E1,1.022E2,8.258E1,2E0,7.0007997E0,4E0,2E1,1.7398438E1,8.78E1,2E1,1.05012E1,3.5990524E-1,1.4E1,2.5E1,3.55421E-1,2.3E1,5.8742795E-2,-4.1254733E-2,1.7208833E-1,1.8335668E-3,-1.0273788E-2,-1.6499883E-1,1.0252763E-2,4.1809846E-2,8.631298E-2,-1.4469986E-1,-9.2886204E-1,-1.2111626E-1,-1.3786335E-1,5.9276473E-2,7.540923E-2,-1.9721204E-1,-4.9691305E-2,8.819351E-2,-3.5471126E-2,-1.7879914E-1,-1.9655992E-1,-5.8340836E-1,-2.4300995E-1,8.223496E-2,-7.4348453E-4,-8.161947E-2,-1.1510554E-1,-4.0495837E-1,3.2635525E-2,-7.919694E-2,3.5846674E-1,5.230179E-2,-5.177361E-1,-6.5806605E-2,6.1714405E-1,4.490326E-2,1.6391793E-1,-4.3549974E-2,3.301158E-1,-2.412758E-2,-6.0941316E-2,-7.6153034E-1,2.0372577E-1,-1.3387413E-1,-1.589873E-1,-4.5653555E-1,7.773086E-2,-2.1589582E-1,1.029525E-1,-1.3197842E-1,-3.8782235E-2,1.5096576E-2,-7.614928E-2,-7.0278776E-1,2.1491088E-2,1.7886887E-1],"split_indices":[0,0,2,3,1,2,2,0,2,2,2,0,4,1,4,1,3,2,1,2,1,3,3,3,4,4,4,4,4,4,4,1,4,4,0,0,1,1,2,4,4,3,4,3,1,2,2,4,3,3,1,4,1,0,4,3,0,4,0,0,2,0,0,0,0,0,0,0,0,0,0,0,0,0,0,0,0,0,0,0,0,0,0,0,0,0,0,0,0,0,0,0,0,0,0,0,0,0,0,0,0,0,0,0,0,0,0,0,0,0,0,0,0,0,0,0,0,0,0],"split_type":[0,0,0,0,0,0,0,0,0,0,0,0,0,0,0,0,0,0,0,0,0,0,0,0,0,0,0,0,0,0,0,0,0,0,0,0,0,0,0,0,0,0,0,0,0,0,0,0,0,0,0,0,0,0,0,0,0,0,0,0,0,0,0,0,0,0,0,0,0,0,0,0,0,0,0,0,0,0,0,0,0,0,0,0,0,0,0,0,0,0,0,0,0,0,0,0,0,0,0,0,0,0,0,0,0,0,0,0,0,0,0,0,0,0,0,0,0,0,0],"sum_hessian":[3.669E3,1.834E3,1.835E3,1.68E3,1.54E2,7.74E2,1.061E3,1.663E3,1.7E1,1.09E2,4.5E1,7.14E2,6E1,1.2E2,9.41E2,2.9E2,1.373E3,4E0,1.3E1,6.3E1,4.6E1,9E0,3.6E1,6.56E2,5.8E1,4.9E1,1.1E1,9.6E1,2.4E1,9.32E2,9E0,2.08E2,8.2E1,1.372E3,1E0,2E0,2E0,8E0,5E0,1.7E1,4.6E1,1.7E1,2.9E1,6E0,3E0,2.7E1,9E0,6.52E2,4E0,4.2E1,1.6E1,3.3E1,1.6E1,4E0,7E0,2.8E1,6.8E1,2.1E1,3E0,9.23E2,9E0,4E0,5E0,7.6E1,1.32E2,4.2E1,4E1,1.361E3,1.1E1,1E0,1E0,6E0,2E0,2E0,3E0,1.1E1,6E0,4.3E1,3E0,1.2E1,5E0,1.3E1,1.6E1,2E0,4E0,2E0,1E0,1.7E1,1E1,7E0,2E0,6.26E2,2.6E1,3E0,1E0,5E0,3.7E1,2E0,1.4E1,2.3E1,1E1,1.3E1,3E0,2E0,2E0,6E0,1E0,2.2E1,6E0,3.8E1,3E1,1.8E1,3E0,1.56E2,7.67E2,7E0,2E0,4E0,1E0],"tree_param":{"num_deleted":"0","num_feature":"5","num_nodes":"119","size_leaf_vector":"1"}},{"base_weights":[-1.5114538E-3,-1.1749305E-2,8.2684524E-2,-2.7647195E-2,2.7619729E-2,3.4883204E-1,3.347434E-2,-5.580983E-3,-1.0848663E-1,4.111622E-1,1.0622331E-3,4.3870264E-1,-1.07722886E-1,-2.7655342E-1,9.492144E-2,-1.2545669E-1,1.1440962E-2,-6.1694854E-1,-8.155379E-2,2.5550094E-1,1.1794846E0,-2.3353705E-1,2.735729E-2,3.145236E-1,8.729588E-1,2.1650238E-1,-5.0249636E-1,-4.600372E-2,-8.027555E-1,-1.8817405E-1,1.411309E-1,-1.5759246E-1,5.908623E-1,5.4645157E-1,8.048422E-3,-1.5148926E-1,-3.0227375E0,6.889638E-2,-1.7743756E-1,3.9869058E-1,-9.087346E-1,1.5514851E0,-2.056783E-1,-1.3740327E-2,-3.7574345E-1,8.138914E-1,1.9327262E-2,-1.3064575E-1,4.577217E-1,1.0096405E0,-7.407875E-2,-3.4034616E-1,4.9266645E-1,7.272181E-2,-3.2909012E-1,-2.5162063E0,-8.198547E-2,-7.72586E-1,2.7737328E-1,-5.4460907E-1,1.7289917E-1,-3.558425E-2,-2.2983734E-1,2.6894647E-1,-1.2632829E-1,7.6732E-3,-2.7949525E-2,1.9188567E-1,-1.6899431E-1,-1.0738419E0,-2.0287973E-1,-1.262169E-2,1.6465472E-1,-5.586208E-3,-1.484638E-1,4.9994446E-2,2.513572E-1,-3.61516E-1,-6.321946E-2,2.4652864E-1,6.2273026E-1,1.6067734E-1,-2.532326E-1,1.5677017E-1,-1.13634005E-1,-2.907797E-1,-3.0099709E-2,4.2645037E-1,-4.472809E-2,-2.672942E-3,6.145634E-2,1.235962E-1,-1.9545136E-1,2.8831297E-1,9.138222E-2,3.7947637E-1,-2.2964478E-3,3.325613E-1,-7.6293945E-6,-1.5082529E-1,7.341117E-2,-3.4823287E-1,2.3134105E-2,1.747324E-1,-2.2366197E0,8.353024E-2,-6.610531E-1,-6.426724E-1,-2.430232E-2,1.488205E-1,-4.0378496E-1,9.2518166E-2,-1.3611958E0,1.3606867E-1,2.752792E-2],"categories":[],"categories_nodes":[],"categories_segments":[],"categories_sizes":[],"default_left":[0,0,0,0,0,0,0,0,0,0,0,0,0,0,0,0,0,0,0,0,0,0,0,0,0,0,0,0,0,0,0,0,0,0,0,0,0,0,0,0,0,0,0,0,0,0,0,0,0,0,0,0,0,0,0,0,0,0,0,0,0,0,0,0,0,0,0,0,0,0,0,0,0,0,0,0,0,0,0,0,0,0,0,0,0,0,0,0,0,0,0,0,0,0,0,0,0,0,0,0,0,0,0,0,0,0,0,0,0,0,0,0,0,0,0],"id":15,"left_children":[1,3,5,7,9,11,13,15,17,19,21,23,25,27,29,31,33,35,37,39,41,43,45,47,49,51,-1,53,55,57,59,61,63,-1,65,67,69,71,73,75,77,79,81,83,85,87,89,91,93,95,-1,-1,97,99,101,103,105,107,109,111,113,-1,-1,-1,-1,-1,-1,-1,-1,-1,-1,-1,-1,-1,-1,-1,-1,-1,-1,-1,-1,-1,-1,-1,-1,-1,-1,-1,-1,-1,-1,-1,-1,-1,-1,-1,-1,-1,-1,-1,-1,-1,-1,-1,-1,-1,-1,-1,-1,-1,-1,-1,-1,-1,-1],"loss_changes":[3.16446E0,2.0492837E0,5.2009954E0,4.1592636E0,9.5947075E0,2.5911727E0,6.4462037E0,3.7417045E0,6.7968483E0,6.9941187E0,5.447272E0,2.52956E0,5.952255E0,6.756751E0,3.7155936E0,5.3415527E0,9.847328E0,2.753701E1,6.878872E0,9.03104E0,5.471921E0,2.7766657E0,4.9990854E0,2.7371902E0,1.9330597E0,4.289871E0,0E0,1.3683153E0,2.0788776E1,1.1097151E1,5.3878636E0,5.103707E0,3.4703074E0,0E0,2.8481398E0,7.5278654E0,2.804779E0,9.929398E0,1.4661581E1,4.6499214E0,9.8704576E-1,1.3548603E0,1.8718436E0,7.2457857E0,8.729731E0,4.89289E0,4.1247168E0,3.3773987E0,2.1733627E0,2.6066418E0,0E0,0E0,2.7309408E0,2.9931839E0,4.1435204E0,8.086641E1,1.0553841E1,1.6876492E1,8.832975E0,3.886301E1,5.264454E0,0E0,0E0,0E0,0E0,0E0,0E0,0E0,0E0,0E0,0E0,0E0,0E0,0E0,0E0,0E0,0E0,0E0,0E0,0E0,0E0,0E0,0E0,0E0,0E0,0E0,0E0,0E0,0E0,0E0,0E0,0E0,0E0,0E0,0E0,0E0,0E0,0E0,0E0,0E0,0E0,0E0,0E0,0E0,0E0,0E0,0E0,0E0,0E0,0E0,0E0,0E0,0E0,0E0,0E0],"parents":[2147483647,0,0,1,1,2,2,3,3,4,4,5,5,6,6,7,7,8,8,9,9,10,10,11,11,12,12,13,13,14,14,15,15,16,16,17,17,18,18,19,19,20,20,21,21,22,22,23,23,24,24,25,25,27,27,28,28,29,29,30,30,31,31,32,32,34,34,35,35,36,36,37,37,38,38,39,39,40,40,41,41,42,42,43,43,44,44,45,45,46,46,47,47,48,48,49,49,52,52,53,53,54,54,55,55,56,56,57,57,58,58,59,59,60,60],"right_children":[2,4,6,8,10,12,14,16,18,20,22,24,26,28,30,32,34,36,38,40,42,44,46,48,50,52,-1,54,56,58,60,62,64,-1,66,68,70,72,74,76,78,80,82,84,86,88,90,92,94,96,-1,-1,98,100,102,104,106,108,110,112,114,-1,-1,-1,-1,-1,-1,-1,-1,-1,-1,-1,-1,-1,-1,-1,-1,-1,-1,-1,-1,-1,-1,-1,-1,-1,-1,-1,-1,-1,-1,-1,-1,-1,-1,-1,-1,-1,-1,-1,-1,-1,-1,-1,-1,-1,-1,-1,-1,-1,-1,-1,-1,-1,-1],"split_conditions":[9.32E1,5E0,1E0,4E0,3E0,2.3E1,2E0,7.862E1,2E0,1.8E1,5E0,2.2E1,1.004E2,2.2E1,1.8E1,2.1E1,7.88E1,8.474E1,1.5E1,8.96E1,2.3E1,3.603962E0,7.538E1,1.1E1,1.287795E1,4E0,-5.0249636E-1,1.2427455E1,9.320591E0,5E0,3E0,9.631277E0,3E0,5.4645157E-1,1.9E1,4.9088445E0,2E1,1.1E1,8.474E1,1.2E1,6E0,2.1E1,6E0,4E0,4.9088445E0,1.1184709E0,2.9E1,5E0,1.2E1,2.5E1,-7.407875E-2,-3.4034616E-1,1.4E1,1.9E1,1.7E1,1E1,2.7E1,9.320591E0,2.4E1,1.1806082E1,2E1,-3.558425E-2,-2.2983734E-1,2.6894647E-1,-1.2632829E-1,7.6732E-3,-2.7949525E-2,1.9188567E-1,-1.6899431E-1,-1.0738419E0,-2.0287973E-1,-1.262169E-2,1.6465472E-1,-5.586208E-3,-1.484638E-1,4.9994446E-2,2.513572E-1,-3.61516E-1,-6.321946E-2,2.4652864E-1,6.2273026E-1,1.6067734E-1,-2.532326E-1,1.5677017E-1,-1.13634005E-1,-2.907797E-1,-3.0099709E-2,4.2645037E-1,